{"learner":{"attributes":{"scikit_learn":"{\"_estimator_type\": \"regressor\"}"},"feature_names":["Crop_Name","Variety","Season","N_Ratio","P_Ratio","K_Ratio","CurrentNPK_kg","FYM_kg","Vermicompost_kg","Neem_Cake_kg","Growth_Duration_Days","Soil_Type","pH_Min","pH_Max","Irrigation_Interval_Days"],"feature_types":["int","int","int","float","float","float","int","int","int","int","int","int","float","float","int"],"gradient_booster":{"model":{"gbtree_model_param":{"num_parallel_tree":"1","num_trees":"100"},"iteration_indptr":[0,1,2,3,4,5,6,7,8,9,10,11,12,13,14,15,16,17,18,19,20,21,22,23,24,25,26,27,28,29,30,31,32,33,34,35,36,37,38,39,40,41,42,43,44,45,46,47,48,49,50,51,52,53,54,55,56,57,58,59,60,61,62,63,64,65,66,67,68,69,70,71,72,73,74,75,76,77,78,79,80,81,82,83,84,85,86,87,88,89,90,91,92,93,94,95,96,97,98,99,100],"tree_info":[0,0,0,0,0,0,0,0,0,0,0,0,0,0,0,0,0,0,0,0,0,0,0,0,0,0,0,0,0,0,0,0,0,0,0,0,0,0,0,0,0,0,0,0,0,0,0,0,0,0,0,0,0,0,0,0,0,0,0,0,0,0,0,0,0,0,0,0,0,0,0,0,0,0,0,0,0,0,0,0,0,0,0,0,0,0,0,0,0,0,0,0,0,0,0,0,0,0,0,0],"trees":[{"base_weights":[-6.577064E-8,-1.4297111E1,8.510185E1,-2.305808E1,-2.3809507E-1,1.1058125E1,5.67772E0,-1.3784115E0,-2.5079458E0,-2.4766414E0,6.6862535E0,1.109928E1,-2.9935896E0,8.808739E0,2.2067707E1,-3.7126735E-1,-1.5358795E-1,9.313447E-1,2.1712963E-1,9.50463E-1,2.987847E0],"categories":[],"categories_nodes":[],"categories_segments":[],"categories_sizes":[],"default_left":[0,0,0,0,0,0,0,0,0,0,0,0,0,0,0,0,0,0,0,0,0],"id":0,"left_children":[1,3,5,7,9,-1,-1,-1,-1,-1,11,13,15,17,19,-1,-1,-1,-1,-1,-1],"loss_changes":[1.7763975E5,1.5390836E4,8.877094E3,1.0977578E3,8.487885E3,0E0,0E0,0E0,0E0,0E0,1.6992053E3,4.8394946E2,7.924591E0,6.0177124E1,1.08525024E2,0E0,0E0,0E0,0E0,0E0,0E0],"parents":[2147483647,0,0,1,1,2,2,3,3,4,4,10,10,11,11,12,12,13,13,14,14],"right_children":[2,4,6,8,10,-1,-1,-1,-1,-1,12,14,16,18,20,-1,-1,-1,-1,-1,-1],"split_conditions":[9.4E1,2E0,3E0,9.9E1,2E0,1.1058125E1,5.67772E0,-1.3784115E0,-2.5079458E0,-2.4766414E0,1.3E1,9.2E1,8.6E1,1.4E1,1E0,-3.7126735E-1,-1.5358795E-1,9.313447E-1,2.1712963E-1,9.50463E-1,2.987847E0],"split_indices":[7,5,0,10,3,0,0,0,0,0,0,7,7,3,0,0,0,0,0,0,0],"split_type":[0,0,0,0,0,0,0,0,0,0,0,0,0,0,0,0,0,0,0,0,0],"sum_hessian":[1.44E2,1.24E2,2E1,7.6E1,4.8E1,9E0,1.1E1,1.5E1,6.1E1,1E1,3.8E1,2.6E1,1.2E1,2.3E1,3E0,7E0,5E0,2.1E1,2E0,2E0,1E0],"tree_param":{"num_deleted":"0","num_feature":"15","num_nodes":"21","size_leaf_vector":"1"}},{"base_weights":[1.029988E-1,-1.2881808E1,7.738861E1,-2.0802744E1,-1.7172891E-1,1.0062894E1,5.1572623E0,-1.2491853E1,-2.2611963E1,-2.2514923E0,6.1346006E0,-1.2867001E0,-3.4323215E-1,-2.2773879E0,-6.3675547E-1,1.0177752E1,-2.7346044E0,7.9757175E0,2.0845516E1,-3.3878145E-1,-1.40789E-1,8.424436E-1,2.0265439E-1,8.870988E-1,2.838455E0],"categories":[],"categories_nodes":[],"categories_segments":[],"categories_sizes":[],"default_left":[0,0,0,0,0,0,0,0,0,0,0,0,0,0,0,0,0,0,0,0,0,0,0,0,0],"id":1,"left_children":[1,3,5,7,9,-1,-1,11,13,-1,15,-1,-1,-1,-1,17,19,21,23,-1,-1,-1,-1,-1,-1],"loss_changes":[1.4651003E5,1.2580895E4,7.4097188E3,8.753242E2,7.042394E3,0E0,0E0,1.0214844E1,1.8060547E1,0E0,1.426354E3,0E0,0E0,0E0,0E0,4.6799292E2,6.496437E0,4.6995605E1,1.093064E2,0E0,0E0,0E0,0E0,0E0,0E0],"parents":[2147483647,0,0,1,1,2,2,3,3,4,4,7,7,8,8,10,10,15,15,16,16,17,17,18,18],"right_children":[2,4,6,8,10,-1,-1,12,14,-1,16,-1,-1,-1,-1,18,20,22,24,-1,-1,-1,-1,-1,-1],"split_conditions":[9.4E1,2E0,3E0,9.9E1,2E0,1.0062894E1,5.1572623E0,7.6E1,1E1,-2.2514923E0,1.3E1,-1.2867001E0,-3.4323215E-1,-2.2773879E0,-6.3675547E-1,9.2E1,8.6E1,1.4E1,1E0,-3.3878145E-1,-1.40789E-1,8.424436E-1,2.0265439E-1,8.870988E-1,2.838455E0],"split_indices":[7,5,0,10,3,0,0,7,0,0,0,0,0,0,0,7,7,3,0,0,0,0,0,0,0],"split_type":[0,0,0,0,0,0,0,0,0,0,0,0,0,0,0,0,0,0,0,0,0,0,0,0,0],"sum_hessian":[1.44E2,1.24E2,2E1,7.6E1,4.8E1,9E0,1.1E1,1.5E1,6.1E1,1E1,3.8E1,1.4E1,1E0,6E1,1E0,2.6E1,1.2E1,2.3E1,3E0,7E0,5E0,2.1E1,2E0,2E0,1E0],"tree_param":{"num_deleted":"0","num_feature":"15","num_nodes":"25","size_leaf_vector":"1"}},{"base_weights":[1.8039265E-1,-1.1613664E1,7.037452E1,-1.8781485E1,-1.1293263E-1,9.157233E0,4.684513E0,-1.3109284E1,-2.1102682E1,-2.046811E0,5.6311674E0,-9.3384457E-1,-1.5000614E0,-2.1275842E0,-6.049177E-1,9.336666E0,-2.498034E0,7.22169E0,1.9692352E1,-3.091381E-1,-1.2905659E-1,7.620284E-1,1.8914413E-1,8.27959E-1,2.696532E0],"categories":[],"categories_nodes":[],"categories_segments":[],"categories_sizes":[],"default_left":[0,0,0,0,0,0,0,0,0,0,0,0,0,0,0,0,0,0,0,0,0,0,0,0,0],"id":2,"left_children":[1,3,5,7,9,-1,-1,11,13,-1,15,-1,-1,-1,-1,17,19,21,23,-1,-1,-1,-1,-1,-1],"loss_changes":[1.2085897E5,1.0302275E4,6.1844766E3,7.3716406E2,5.8444463E3,0E0,0E0,3.8214844E1,9.453125E0,0E0,1.1981105E3,0E0,0E0,0E0,0E0,4.4914233E2,5.324188E0,3.657715E1,1.0875696E2,0E0,0E0,0E0,0E0,0E0,0E0],"parents":[2147483647,0,0,1,1,2,2,3,3,4,4,7,7,8,8,10,10,15,15,16,16,17,17,18,18],"right_children":[2,4,6,8,10,-1,-1,12,14,-1,16,-1,-1,-1,-1,18,20,22,24,-1,-1,-1,-1,-1,-1],"split_conditions":[9.4E1,2E0,3E0,1.1E2,2E0,9.157233E0,4.684513E0,2.7E1,1E1,-2.046811E0,1.3E1,-9.3384457E-1,-1.5000614E0,-2.1275842E0,-6.049177E-1,9.2E1,8.6E1,1.4E1,1E0,-3.091381E-1,-1.2905659E-1,7.620284E-1,1.8914413E-1,8.27959E-1,2.696532E0],"split_indices":[7,5,0,10,3,0,0,1,0,0,0,0,0,0,0,7,7,3,0,0,0,0,0,0,0],"split_type":[0,0,0,0,0,0,0,0,0,0,0,0,0,0,0,0,0,0,0,0,0,0,0,0,0],"sum_hessian":[1.44E2,1.24E2,2E1,7.6E1,4.8E1,9E0,1.1E1,2.4E1,5.2E1,1E1,3.8E1,1E1,1.4E1,5.1E1,1E0,2.6E1,1.2E1,2.3E1,3E0,7E0,5E0,2.1E1,2E0,2E0,1E0],"tree_param":{"num_deleted":"0","num_feature":"15","num_nodes":"25","size_leaf_vector":"1"}},{"base_weights":[2.3591243E-1,-1.0477703E1,6.39962E1,-1.6970432E1,-6.101367E-2,8.333083E0,4.2551E0,-1.1895713E1,-1.904397E0,-1.8607377E0,5.171576E0,-8.7051964E-1,-1.3780749E0,8.568765E0,-2.281938E0,6.539154E0,1.860424E1,-2.8208858E-1,-1.1830183E-1,5.7400893E-2,6.773551E-1,7.7276176E-1,2.5617054E0],"categories":[],"categories_nodes":[],"categories_segments":[],"categories_sizes":[],"default_left":[0,0,0,0,0,0,0,0,0,0,0,0,0,0,0,0,0,0,0,0,0,0,0],"id":3,"left_children":[1,3,5,7,9,-1,-1,11,-1,-1,13,-1,-1,15,17,19,21,-1,-1,-1,-1,-1,-1],"loss_changes":[9.97205E4,8.453056E3,5.1615234E3,5.837012E2,4.8514585E3,0E0,0E0,3.0391846E1,0E0,0E0,1.00707227E3,0E0,0E0,4.2828308E2,4.3622284E0,2.9669067E1,1.0714404E2,0E0,0E0,0E0,0E0,0E0,0E0],"parents":[2147483647,0,0,1,1,2,2,3,3,4,4,7,7,10,10,13,13,14,14,15,15,16,16],"right_children":[2,4,6,8,10,-1,-1,12,-1,-1,14,-1,-1,16,18,20,22,-1,-1,-1,-1,-1,-1],"split_conditions":[9.4E1,2E0,3E0,1.1E2,2E0,8.333083E0,4.2551E0,3.7E1,-1.904397E0,-1.8607377E0,1.3E1,-8.7051964E-1,-1.3780749E0,9.2E1,8.6E1,5.5E0,1E0,-2.8208858E-1,-1.1830183E-1,5.7400893E-2,6.773551E-1,7.7276176E-1,2.5617054E0],"split_indices":[7,5,0,10,3,0,0,1,0,0,0,0,0,7,7,12,0,0,0,0,0,0,0],"split_type":[0,0,0,0,0,0,0,0,0,0,0,0,0,0,0,0,0,0,0,0,0,0,0],"sum_hessian":[1.44E2,1.24E2,2E1,7.6E1,4.8E1,9E0,1.1E1,2.4E1,5.2E1,1E1,3.8E1,1.1E1,1.3E1,2.6E1,1.2E1,2.3E1,3E0,7E0,5E0,1E0,2.2E1,2E0,1E0],"tree_param":{"num_deleted":"0","num_feature":"15","num_nodes":"23","size_leaf_vector":"1"}},{"base_weights":[2.8296444E-1,-1.0257346E1,5.385109E1,-1.5327323E1,-1.5476605E0,3.5607704E1,7.5831056E0,-1.1020504E0,-1.7306868E1,-1.6915797E0,3.1911495E0,7.212443E-1,3.9421403E0,-1.7461224E0,-4.7945195E-1,5.915852E0,-2.0845435E0,6.246326E0,1.5204264E-1,-2.5740576E-1,-1.08443394E-1,2.0291798E-1,6.566581E-1],"categories":[],"categories_nodes":[],"categories_segments":[],"categories_sizes":[],"default_left":[0,0,0,0,0,0,0,0,0,0,0,0,0,0,0,0,0,0,0,0,0,0,0],"id":4,"left_children":[1,3,5,7,9,11,-1,-1,13,-1,15,-1,-1,-1,-1,17,19,21,-1,-1,-1,-1,-1],"loss_changes":[8.242295E4,5.363544E3,6.9235625E3,4.6573633E2,3.4040078E3,1.340041E3,0E0,0E0,1.4780273E1,0E0,5.2982086E2,0E0,0E0,0E0,0E0,2.5364685E1,3.5729866E0,1.6387634E1,0E0,0E0,0E0,0E0,0E0],"parents":[2147483647,0,0,1,1,2,2,3,3,4,4,5,5,8,8,10,10,15,15,16,16,17,17],"right_children":[2,4,6,8,10,12,-1,-1,14,-1,16,-1,-1,-1,-1,18,20,22,-1,-1,-1,-1,-1],"split_conditions":[9.2E1,2E0,2.5E0,1.12E2,2E0,1E0,7.5831056E0,-1.1020504E0,1E1,-1.6915797E0,1.3E1,7.212443E-1,3.9421403E0,-1.7461224E0,-4.7945195E-1,1.4E1,8.6E1,8.5E1,1.5204264E-1,-2.5740576E-1,-1.08443394E-1,2.0291798E-1,6.566581E-1],"split_indices":[7,5,4,10,3,0,0,0,0,0,0,0,0,0,0,3,7,7,0,0,0,0,0],"split_type":[0,0,0,0,0,0,0,0,0,0,0,0,0,0,0,0,0,0,0,0,0,0,0],"sum_hessian":[1.44E2,1.21E2,2.3E1,7.6E1,4.5E1,1.4E1,9E0,2.6E1,5E1,1E1,3.5E1,2E0,1.2E1,4.9E1,1E0,2.3E1,1.2E1,2.1E1,2E0,7E0,5E0,2E0,1.9E1],"tree_param":{"num_deleted":"0","num_feature":"15","num_nodes":"23","size_leaf_vector":"1"}},{"base_weights":[3.0896503E-1,-9.26746E0,4.897625E1,-1.4089118E1,-1.7966391E0,3.2357826E1,6.9006257E0,-9.644808E0,-1.5904301E1,-1.3117248E0,3.1063826E0,6.731613E-1,3.5782506E0,-6.6962514E0,-1.1272616E0,-1.6271946E0,-4.5979866E-1,5.3664174E0,-1.6725521E0,-7.004377E-1,-1.807498E-1,4.6928693E-2,5.5589323E0,-1.921333E-1,-6.9465734E-2,2.3922034E-1,5.9143317E-1],"categories":[],"categories_nodes":[],"categories_segments":[],"categories_sizes":[],"default_left":[0,0,0,0,0,0,0,0,0,0,0,0,0,0,0,0,0,0,0,0,0,0,0,0,0,0,0],"id":5,"left_children":[1,3,5,7,9,11,-1,13,15,-1,17,-1,-1,19,-1,-1,-1,21,23,-1,-1,-1,25,-1,-1,-1,-1],"loss_changes":[6.8032375E4,4.36934E3,5.755918E3,4.4358203E2,2.7605015E3,1.0755488E3,0E0,3.9708008E1,1.371748E2,0E0,3.869951E2,0E0,0E0,3.9094543E0,0E0,0E0,0E0,2.0017822E1,1.5847092E0,0E0,0E0,0E0,1.1737122E1,0E0,0E0,0E0,0E0],"parents":[2147483647,0,0,1,1,2,2,3,3,4,4,5,5,7,7,8,8,10,10,13,13,17,17,18,18,22,22],"right_children":[2,4,6,8,10,12,-1,14,16,-1,18,-1,-1,20,-1,-1,-1,22,24,-1,-1,-1,26,-1,-1,-1,-1],"split_conditions":[9.2E1,8.3E1,2.5E0,1.08E2,2E0,1E0,6.9006257E0,2.7E1,1E1,-1.3117248E0,1.3E1,6.731613E-1,3.5782506E0,7.6E1,-1.1272616E0,-1.6271946E0,-4.5979866E-1,5.5E0,8.7E1,-7.004377E-1,-1.807498E-1,4.6928693E-2,9.6E1,-1.921333E-1,-6.9465734E-2,2.3922034E-1,5.9143317E-1],"split_indices":[7,7,4,10,5,0,0,1,0,0,0,0,0,7,0,0,0,12,7,0,0,0,10,0,0,0,0],"split_type":[0,0,0,0,0,0,0,0,0,0,0,0,0,0,0,0,0,0,0,0,0,0,0,0,0,0,0],"sum_hessian":[1.44E2,1.21E2,2.3E1,7.3E1,4.8E1,1.4E1,9E0,2.3E1,5E1,1.4E1,3.4E1,2E0,1.2E1,1E1,1.3E1,4.8E1,2E0,2.3E1,1.1E1,9E0,1E0,1E0,2.2E1,8E0,3E0,3E0,1.9E1],"tree_param":{"num_deleted":"0","num_feature":"15","num_nodes":"27","size_leaf_vector":"1"}},{"base_weights":[3.2193655E-1,-8.379986E0,4.4543293E1,-1.2515775E1,-1.2748603E0,2.9405472E1,6.279569E0,-7.5583816E0,-1.3593234E0,-1.3898729E0,2.6178455E0,6.282839E-1,3.2479503E0,-8.350591E-1,-3.0941078E-1,4.8663406E0,-1.7345954E0,5.144243E0,1.2062778E-1,-2.3655899E-1,-1.0445251E0,2.2127886E-1,5.4906416E-1,-1.1189701E-1,-2.617054E-2],"categories":[],"categories_nodes":[],"categories_segments":[],"categories_sizes":[],"default_left":[0,0,0,0,0,0,0,0,0,0,0,0,0,0,0,0,0,0,0,0,0,0,0,0,0],"id":6,"left_children":[1,3,5,7,9,11,-1,13,-1,-1,15,-1,-1,-1,-1,17,19,21,-1,-1,23,-1,-1,-1,-1],"loss_changes":[5.6170836E4,3.5690508E3,4.784703E3,3.0854492E2,2.2968708E3,8.6213184E2,0E0,3.0748596E1,0E0,0E0,3.6075308E2,0E0,0E0,0E0,0E0,1.8205933E1,3.1896782E0,1.0190308E1,0E0,0E0,1.7337513E-1,0E0,0E0,0E0,0E0],"parents":[2147483647,0,0,1,1,2,2,3,3,4,4,5,5,7,7,10,10,15,15,16,16,17,17,20,20],"right_children":[2,4,6,8,10,12,-1,14,-1,-1,16,-1,-1,-1,-1,18,20,22,-1,-1,24,-1,-1,-1,-1],"split_conditions":[9.2E1,2E0,2.5E0,9.9E1,2E0,1E0,6.279569E0,7.4E1,-1.3593234E0,-1.3898729E0,1.3E1,6.282839E-1,3.2479503E0,-8.350591E-1,-3.0941078E-1,1.4E1,8.5E1,9.6E1,1.2062778E-1,-2.3655899E-1,9E0,2.2127886E-1,5.4906416E-1,-1.1189701E-1,-2.617054E-2],"split_indices":[7,5,4,10,3,0,0,7,0,0,0,0,0,0,0,3,7,10,0,0,11,0,0,0,0],"split_type":[0,0,0,0,0,0,0,0,0,0,0,0,0,0,0,0,0,0,0,0,0,0,0,0,0],"sum_hessian":[1.44E2,1.21E2,2.3E1,7.6E1,4.5E1,1.4E1,9E0,1.5E1,6.1E1,1E1,3.5E1,2E0,1.2E1,1.2E1,3E0,2.3E1,1.2E1,2.1E1,2E0,5E0,7E0,3E0,1.8E1,6E0,1E0],"tree_param":{"num_deleted":"0","num_feature":"15","num_nodes":"25","size_leaf_vector":"1"}},{"base_weights":[3.3649072E-1,-7.5696697E0,4.051212E1,-1.1533219E1,-1.429418E0,2.6723341E1,5.714408E0,-7.854699E0,-1.3038147E1,-1.0624268E0,2.5520725E0,5.863983E-1,2.9481397E0,-5.628619E0,-9.305334E-1,-1.3340143E0,-3.7594935E-1,4.41683E0,-1.3901149E0,-6.2328035E-1,-2.8620502E-1,4.6648335E0,1.12585895E-1,-1.595679E-1,-5.8006715E-2,1.5869014E-1,4.893282E-1],"categories":[],"categories_nodes":[],"categories_segments":[],"categories_sizes":[],"default_left":[0,0,0,0,0,0,0,0,0,0,0,0,0,0,0,0,0,0,0,0,0,0,0,0,0,0,0],"id":7,"left_children":[1,3,5,7,9,11,-1,13,15,-1,17,-1,-1,19,-1,-1,-1,21,23,-1,-1,25,-1,-1,-1,-1,-1],"loss_changes":[4.636374E4,2.9526523E3,3.9769414E3,3.0724512E2,1.8209652E3,6.900918E2,0E0,2.5125366E1,9.275586E1,0E0,2.6343274E2,0E0,0E0,2.2196045E0,0E0,0E0,0E0,1.4336212E1,1.0725994E0,0E0,0E0,7.704132E0,0E0,0E0,0E0,0E0,0E0],"parents":[2147483647,0,0,1,1,2,2,3,3,4,4,5,5,7,7,8,8,10,10,13,13,17,17,18,18,21,21],"right_children":[2,4,6,8,10,12,-1,14,16,-1,18,-1,-1,20,-1,-1,-1,22,24,-1,-1,26,-1,-1,-1,-1,-1],"split_conditions":[9.2E1,8.3E1,2.5E0,1.08E2,2E0,1E0,5.714408E0,3.7E1,1E1,-1.0624268E0,1.3E1,5.863983E-1,2.9481397E0,7.4E1,-9.305334E-1,-1.3340143E0,-3.7594935E-1,1.4E1,8.7E1,-6.2328035E-1,-2.8620502E-1,8.5E1,1.12585895E-1,-1.595679E-1,-5.8006715E-2,1.5869014E-1,4.893282E-1],"split_indices":[7,7,4,10,5,0,0,1,0,0,0,0,0,7,0,0,0,3,7,0,0,7,0,0,0,0,0],"split_type":[0,0,0,0,0,0,0,0,0,0,0,0,0,0,0,0,0,0,0,0,0,0,0,0,0,0,0],"sum_hessian":[1.44E2,1.21E2,2.3E1,7.3E1,4.8E1,1.4E1,9E0,2.3E1,5E1,1.4E1,3.4E1,2E0,1.2E1,1.1E1,1.2E1,4.8E1,2E0,2.3E1,1.1E1,8E0,3E0,2.1E1,2E0,8E0,3E0,2E0,1.9E1],"tree_param":{"num_deleted":"0","num_feature":"15","num_nodes":"27","size_leaf_vector":"1"}},{"base_weights":[3.3856285E-1,-6.8460584E0,3.684628E1,-1.0427871E1,-1.2970754E0,2.4286642E1,5.200111E0,-7.145897E0,-1.176786E1,-9.6326697E-1,2.3123815E0,5.4730505E-1,2.6760037E0,-4.181726E-1,-7.901636E-1,-1.2033354E0,-3.5088605E-1,4.00684E0,-1.2692342E0,9.71906E-2,4.2385654E0,-1.5655337E-1,-7.120123E-1,1.845152E-1,4.5193598E-1,-8.69833E-2,-2.6424726E-2],"categories":[],"categories_nodes":[],"categories_segments":[],"categories_sizes":[],"default_left":[0,0,0,0,0,0,0,0,0,0,0,0,0,0,0,0,0,0,0,0,0,0,0,0,0,0,0],"id":8,"left_children":[1,3,5,7,9,11,-1,13,15,-1,17,-1,-1,-1,-1,-1,-1,19,21,-1,23,-1,25,-1,-1,-1,-1],"loss_changes":[3.8284902E4,2.4112744E3,3.3052031E3,2.4134717E2,1.4965359E3,5.5154395E2,0E0,2.0720825E1,6.960449E1,0E0,2.1749709E2,0E0,0E0,0E0,0E0,0E0,0E0,1.2759033E1,8.6657524E-1,0E0,6.4463196E0,0E0,1.9414854E-1,0E0,0E0,0E0,0E0],"parents":[2147483647,0,0,1,1,2,2,3,3,4,4,5,5,7,7,8,8,10,10,17,17,18,18,20,20,22,22],"right_children":[2,4,6,8,10,12,-1,14,16,-1,18,-1,-1,-1,-1,-1,-1,20,22,-1,24,-1,26,-1,-1,-1,-1],"split_conditions":[9.2E1,8.3E1,2.5E0,1.08E2,2E0,1E0,5.200111E0,5E0,1E1,-9.6326697E-1,1.3E1,5.4730505E-1,2.6760037E0,-4.181726E-1,-7.901636E-1,-1.2033354E0,-3.5088605E-1,8E0,4E0,9.71906E-2,9.6E1,-1.5655337E-1,8.7E1,1.845152E-1,4.5193598E-1,-8.69833E-2,-2.6424726E-2],"split_indices":[7,7,4,10,5,0,0,14,0,0,0,0,0,0,0,0,0,11,11,0,10,0,7,0,0,0,0],"split_type":[0,0,0,0,0,0,0,0,0,0,0,0,0,0,0,0,0,0,0,0,0,0,0,0,0,0,0],"sum_hessian":[1.44E2,1.21E2,2.3E1,7.3E1,4.8E1,1.4E1,9E0,2.3E1,5E1,1.4E1,3.4E1,2E0,1.2E1,6E0,1.7E1,4.8E1,2E0,2.3E1,1.1E1,2E0,2.1E1,6E0,5E0,3E0,1.8E1,3E0,2E0],"tree_param":{"num_deleted":"0","num_feature":"15","num_nodes":"27","size_leaf_vector":"1"}},{"base_weights":[3.403018E-1,-6.1881914E0,3.351263E1,-9.422416E0,-1.1775632E0,2.2072866E1,4.732101E0,-6.481655E0,-1.062155E1,-8.7336206E-1,2.0943916E0,5.1081795E-1,2.4289882E0,-4.4670167E0,-7.601609E-1,-1.0854576E0,-3.2749367E-1,3.8490057E0,-8.1245816E-1,-5.021764E-1,-2.240769E-1,2.8020508E0,4.6412283E-1,8.677597E-2,-1.1648078E0,7.685719E-2,2.9170427E-1,-1.3378718E-1,-4.8421193E-2],"categories":[],"categories_nodes":[],"categories_segments":[],"categories_sizes":[],"default_left":[0,0,0,0,0,0,0,0,0,0,0,0,0,0,0,0,0,0,0,0,0,0,0,0,0,0,0,0,0],"id":9,"left_children":[1,3,5,7,9,11,-1,13,15,-1,17,-1,-1,19,-1,-1,-1,21,23,-1,-1,25,-1,-1,27,-1,-1,-1,-1],"loss_changes":[3.1609352E4,1.9659751E3,2.7466406E3,1.9210547E2,1.2297224E3,4.400874E2,0E0,2.0194702E1,5.176172E1,0E0,1.8164114E2,0E0,0E0,2.332428E0,0E0,0E0,0E0,5.2423096E0,9.29911E0,0E0,0E0,5.6404114E-1,0E0,0E0,7.656269E-1,0E0,0E0,0E0,0E0],"parents":[2147483647,0,0,1,1,2,2,3,3,4,4,5,5,7,7,8,8,10,10,13,13,17,17,18,18,21,21,24,24],"right_children":[2,4,6,8,10,12,-1,14,16,-1,18,-1,-1,20,-1,-1,-1,22,24,-1,-1,26,-1,-1,28,-1,-1,-1,-1],"split_conditions":[9.2E1,8.3E1,2.5E0,1.08E2,2E0,1E0,4.732101E0,2.7E1,1E1,-8.7336206E-1,5E0,5.1081795E-1,2.4289882E0,7.4E1,-7.601609E-1,-1.0854576E0,-3.2749367E-1,8.8E1,9E0,-5.021764E-1,-2.240769E-1,8.4E1,4.6412283E-1,8.677597E-2,8.7E1,7.685719E-2,2.9170427E-1,-1.3378718E-1,-4.8421193E-2],"split_indices":[7,7,4,10,5,0,0,1,0,0,14,0,0,7,0,0,0,7,0,0,0,7,0,0,7,0,0,0,0],"split_type":[0,0,0,0,0,0,0,0,0,0,0,0,0,0,0,0,0,0,0,0,0,0,0,0,0,0,0,0,0],"sum_hessian":[1.44E2,1.21E2,2.3E1,7.3E1,4.8E1,1.4E1,9E0,2.3E1,5E1,1.4E1,3.4E1,2E0,1.2E1,1E1,1.3E1,4.8E1,2E0,2.1E1,1.3E1,7E0,3E0,1.1E1,1E1,2E0,1.1E1,1E0,1E1,8E0,3E0],"tree_param":{"num_deleted":"0","num_feature":"15","num_nodes":"29","size_leaf_vector":"1"}},{"base_weights":[3.3824703E-1,-5.594253E0,3.048103E1,-8.519354E0,-1.0625851E0,2.0061567E1,4.306212E0,-6.1401634E0,-9.755482E0,-7.918483E-1,1.9060163E0,4.767634E-1,2.2047741E0,-4.1773435E-1,-7.3511946E-1,-9.903782E-1,-1.4668436E-1,3.5019534E0,-7.3802894E-1,2.5525577E0,4.219299E-1,8.0990857E-1,-1.0635109E0,7.301426E-2,2.6518553E-1,9.776306E-2,2.372322E-2,-1.3288657E-1,-5.766786E-2],"categories":[],"categories_nodes":[],"categories_segments":[],"categories_sizes":[],"default_left":[0,0,0,0,0,0,0,0,0,0,0,0,0,0,0,0,0,0,0,0,0,0,0,0,0,0,0,0,0],"id":10,"left_children":[1,3,5,7,9,11,-1,13,15,-1,17,-1,-1,-1,-1,-1,-1,19,21,23,-1,25,27,-1,-1,-1,-1,-1,-1],"loss_changes":[2.6099719E4,1.6081292E3,2.2822227E3,1.5773242E2,1.01236176E3,3.505298E2,0E0,3.5848633E1,4.3245117E1,0E0,1.5027509E2,0E0,0E0,0E0,0E0,0E0,0E0,4.212982E0,7.9149065E0,2.3529816E-1,0E0,5.6225896E-2,7.8386974E-1,0E0,0E0,0E0,0E0,0E0,0E0],"parents":[2147483647,0,0,1,1,2,2,3,3,4,4,5,5,7,7,8,8,10,10,17,17,18,18,19,19,21,21,22,22],"right_children":[2,4,6,8,10,12,-1,14,16,-1,18,-1,-1,-1,-1,-1,-1,20,22,24,-1,26,28,-1,-1,-1,-1,-1,-1],"split_conditions":[9.2E1,8.3E1,2.5E0,1.12E2,2E0,1E0,4.306212E0,3.7E1,1.1E1,-7.918483E-1,5E0,4.767634E-1,2.2047741E0,-4.1773435E-1,-7.3511946E-1,-9.903782E-1,-1.4668436E-1,8.8E1,9E0,8.4E1,4.219299E-1,1E2,4E0,7.301426E-2,2.6518553E-1,9.776306E-2,2.372322E-2,-1.3288657E-1,-5.766786E-2],"split_indices":[7,7,4,10,5,0,0,1,0,0,14,0,0,0,0,0,0,7,0,7,0,1,11,0,0,0,0,0,0],"split_type":[0,0,0,0,0,0,0,0,0,0,0,0,0,0,0,0,0,0,0,0,0,0,0,0,0,0,0,0,0],"sum_hessian":[1.44E2,1.21E2,2.3E1,7.3E1,4.8E1,1.4E1,9E0,2.7E1,4.6E1,1.4E1,3.4E1,2E0,1.2E1,1.2E1,1.5E1,4.5E1,1E0,2.1E1,1.3E1,1.1E1,1E1,2E0,1.1E1,1E0,1E1,1E0,1E0,6E0,5E0],"tree_param":{"num_deleted":"0","num_feature":"15","num_nodes":"29","size_leaf_vector":"1"}},{"base_weights":[3.361262E-1,-5.054424E0,2.7724083E1,-7.698364E0,-9.5838326E-1,1.823418E1,3.9186528E0,-5.5673203E0,-8.804126E0,-7.179424E-1,1.7351596E0,4.449791E-1,2.0012567E0,-3.7917423E0,-6.66202E-1,-9.0169156E-1,-2.677587E-1,3.0169606E0,-9.7303885E-1,-4.295376E-1,-2.1268538E-1,6.8464786E-2,3.1978686E0,-1.3383087E0,-6.231153E-1,1.9012539E-1,3.565271E-1,-3.3644296E-2,-1.5046644E-1,-6.6831484E-2,-1.5335942E-2],"categories":[],"categories_nodes":[],"categories_segments":[],"categories_sizes":[],"default_left":[0,0,0,0,0,0,0,0,0,0,0,0,0,0,0,0,0,0,0,0,0,0,0,0,0,0,0,0,0,0,0],"id":11,"left_children":[1,3,5,7,9,11,-1,13,15,-1,17,-1,-1,19,-1,-1,-1,21,23,-1,-1,-1,25,27,29,-1,-1,-1,-1,-1,-1],"loss_changes":[2.154737E4,1.3138433E3,1.896125E3,1.2536035E2,8.335329E2,2.786577E2,0E0,2.9163574E1,3.7128174E1,0E0,1.2443362E2,0E0,0E0,1.764801E0,0E0,0E0,0E0,7.9369965E0,6.998768E-1,0E0,0E0,0E0,3.7018738E0,3.2709694E-1,6.73697E-2,0E0,0E0,0E0,0E0,0E0,0E0],"parents":[2147483647,0,0,1,1,2,2,3,3,4,4,5,5,7,7,8,8,10,10,13,13,17,17,18,18,22,22,23,23,24,24],"right_children":[2,4,6,8,10,12,-1,14,16,-1,18,-1,-1,20,-1,-1,-1,22,24,-1,-1,-1,26,28,30,-1,-1,-1,-1,-1,-1],"split_conditions":[9.2E1,8.3E1,2.5E0,1.12E2,2E0,1E0,3.9186528E0,3.7E1,1E1,-7.179424E-1,1.3E1,4.449791E-1,2.0012567E0,7.4E1,-6.66202E-1,-9.0169156E-1,-2.677587E-1,8E0,8.5E1,-4.295376E-1,-2.1268538E-1,6.8464786E-2,9.8E1,6E0,9E0,1.9012539E-1,3.565271E-1,-3.3644296E-2,-1.5046644E-1,-6.6831484E-2,-1.5335942E-2],"split_indices":[7,7,4,10,5,0,0,1,0,0,0,0,0,7,0,0,0,11,7,0,0,0,10,1,11,0,0,0,0,0,0],"split_type":[0,0,0,0,0,0,0,0,0,0,0,0,0,0,0,0,0,0,0,0,0,0,0,0,0,0,0,0,0,0,0],"sum_hessian":[1.44E2,1.21E2,2.3E1,7.3E1,4.8E1,1.4E1,9E0,2.7E1,4.6E1,1.4E1,3.4E1,2E0,1.2E1,1.2E1,1.5E1,4.4E1,2E0,2.3E1,1.1E1,8E0,4E0,2E0,2.1E1,4E0,7E0,6E0,1.5E1,1E0,3E0,6E0,1E0],"tree_param":{"num_deleted":"0","num_feature":"15","num_nodes":"31","size_leaf_vector":"1"}},{"base_weights":[3.2677478E-1,-4.572317E0,2.5216875E1,-6.9620123E0,-8.700771E-1,1.6573843E1,3.5659738E0,-5.057318E0,-7.9485955E0,-6.509345E-1,1.5716114E0,4.1531372E-1,1.8165249E0,-3.4619706E0,-6.037456E-1,-8.1352615E-1,-2.4990807E-1,2.9044657E0,-6.3513196E-1,-4.157687E-1,-2.2716868E-1,2.105875E0,3.5116133E-1,6.2774974E-1,-8.979247E-1,5.985737E-2,2.1884866E-1,7.504864E-2,1.9113827E-2,-1.2412999E-1,-5.7107475E-2],"categories":[],"categories_nodes":[],"categories_segments":[],"categories_sizes":[],"default_left":[0,0,0,0,0,0,0,0,0,0,0,0,0,0,0,0,0,0,0,0,0,0,0,0,0,0,0,0,0,0,0],"id":12,"left_children":[1,3,5,7,9,11,-1,13,15,-1,17,-1,-1,19,-1,-1,-1,21,23,-1,-1,25,-1,27,29,-1,-1,-1,-1,-1,-1],"loss_changes":[1.779644E4,1.073304E3,1.5751729E3,9.885791E1,6.849276E2,2.2105322E2,0E0,2.2880981E1,2.7479492E1,0E0,1.0478908E2,0E0,0E0,1.320343E0,0E0,0E0,0E0,3.2719574E0,5.2099385E0,0E0,0E0,1.8426895E-1,0E0,1.731801E-2,6.3791084E-1,0E0,0E0,0E0,0E0,0E0,0E0],"parents":[2147483647,0,0,1,1,2,2,3,3,4,4,5,5,7,7,8,8,10,10,13,13,17,17,18,18,21,21,23,23,24,24],"right_children":[2,4,6,8,10,12,-1,14,16,-1,18,-1,-1,20,-1,-1,-1,22,24,-1,-1,26,-1,28,30,-1,-1,-1,-1,-1,-1],"split_conditions":[9.2E1,8.3E1,2.5E0,1.12E2,2E0,1E0,3.5659738E0,3.7E1,1E1,-6.509345E-1,5E0,4.1531372E-1,1.8165249E0,7.3E1,-6.037456E-1,-8.1352615E-1,-2.4990807E-1,8.8E1,9E0,-4.157687E-1,-2.2716868E-1,8.4E1,3.5116133E-1,1E2,8.5E1,5.985737E-2,2.1884866E-1,7.504864E-2,1.9113827E-2,-1.2412999E-1,-5.7107475E-2],"split_indices":[7,7,4,10,5,0,0,1,0,0,14,0,0,7,0,0,0,7,0,0,0,7,0,1,7,0,0,0,0,0,0],"split_type":[0,0,0,0,0,0,0,0,0,0,0,0,0,0,0,0,0,0,0,0,0,0,0,0,0,0,0,0,0,0,0],"sum_hessian":[1.44E2,1.21E2,2.3E1,7.3E1,4.8E1,1.4E1,9E0,2.7E1,4.6E1,1.4E1,3.4E1,2E0,1.2E1,1.2E1,1.5E1,4.4E1,2E0,2.1E1,1.3E1,6E0,6E0,1.1E1,1E1,2E0,1.1E1,1E0,1E1,1E0,1E0,4E0,7E0],"tree_param":{"num_deleted":"0","num_feature":"15","num_nodes":"31","size_leaf_vector":"1"}},{"base_weights":[3.1740442E-1,-4.1349072E0,2.2936764E1,-6.2970285E0,-7.852766E-1,1.5065246E1,3.2450364E0,-4.380395E0,-7.075503E0,-5.9018064E-1,1.4299583E0,3.8762614E-1,1.6488453E0,-5.4399306E-1,-3.2350168E0,-7.171626E-1,-1.1346674E-1,2.642649E0,-5.7783824E-1,-3.5974687E-1,-1.4295201E-1,1.123868E-1,2.8233056E0,5.963618E-1,-8.2323503E-1,6.579437E-2,2.907051E-1,7.129612E-2,1.815815E-2,-9.617539E-2,-3.0575896E-2],"categories":[],"categories_nodes":[],"categories_segments":[],"categories_sizes":[],"default_left":[0,0,0,0,0,0,0,0,0,0,0,0,0,0,0,0,0,0,0,0,0,0,0,0,0,0,0,0,0,0,0],"id":13,"left_children":[1,3,5,7,9,11,-1,13,15,-1,17,-1,-1,-1,19,-1,-1,21,23,-1,-1,-1,25,27,29,-1,-1,-1,-1,-1,-1],"loss_changes":[1.4697563E4,8.786167E2,1.3084023E3,7.941821E1,5.638208E2,1.7494995E2,0E0,1.1527374E1,2.0986328E1,0E0,8.674629E1,0E0,0E0,0E0,4.019043E0,0E0,0E0,2.8632965E0,4.524976E0,0E0,0E0,0E0,1.5327606E0,1.5628815E-2,5.660963E-1,0E0,0E0,0E0,0E0,0E0,0E0],"parents":[2147483647,0,0,1,1,2,2,3,3,4,4,5,5,7,7,8,8,10,10,14,14,17,17,18,18,22,22,23,23,24,24],"right_children":[2,4,6,8,10,12,-1,14,16,-1,18,-1,-1,-1,20,-1,-1,22,24,-1,-1,-1,26,28,30,-1,-1,-1,-1,-1,-1],"split_conditions":[9.2E1,8.3E1,2.5E0,1.08E2,2E0,1E0,3.2450364E0,6E0,1.1E1,-5.9018064E-1,5E0,3.8762614E-1,1.6488453E0,-5.4399306E-1,7.4E1,-7.171626E-1,-1.1346674E-1,9.6E1,9E0,-3.5974687E-1,-1.4295201E-1,1.123868E-1,4E0,1E2,8.7E1,6.579437E-2,2.907051E-1,7.129612E-2,1.815815E-2,-9.617539E-2,-3.0575896E-2],"split_indices":[7,7,4,10,5,0,0,0,0,0,14,0,0,0,7,0,0,10,0,0,0,0,11,1,7,0,0,0,0,0,0],"split_type":[0,0,0,0,0,0,0,0,0,0,0,0,0,0,0,0,0,0,0,0,0,0,0,0,0,0,0,0,0,0,0],"sum_hessian":[1.44E2,1.21E2,2.3E1,7.3E1,4.8E1,1.4E1,9E0,2.3E1,5E1,1.4E1,3.4E1,2E0,1.2E1,1E1,1.3E1,4.9E1,1E0,2.1E1,1.3E1,1E1,3E0,3E0,1.8E1,2E0,1.1E1,1E0,1.7E1,1E0,1E0,8E0,3E0],"tree_param":{"num_deleted":"0","num_feature":"15","num_nodes":"31","size_leaf_vector":"1"}},{"base_weights":[3.080478E-1,-3.7381043E0,2.0863152E1,-5.5960417E0,-5.468152E-1,1.3694489E1,2.9529834E0,-4.10734E0,-6.61922E-1,-5.1361406E-1,1.4167414E0,3.6178437E-1,1.4966446E0,-4.722078E0,-1.87506E0,2.465162E0,-3.8584137E-1,-5.0015726E0,-1.934464E-1,-2.2375552E-1,5.124512E-2,1.9495311E-1,3.2179198E-1,5.665436E-1,-6.1050624E-1,-3.67611E-1,-5.9102374E-1,6.773128E-2,1.7250253E-2,-6.511869E-2,-1.0184956E-2],"categories":[],"categories_nodes":[],"categories_segments":[],"categories_sizes":[],"default_left":[0,0,0,0,0,0,0,0,0,0,0,0,0,0,0,0,0,0,0,0,0,0,0,0,0,0,0,0,0,0,0],"id":14,"left_children":[1,3,5,7,9,11,-1,13,-1,-1,15,-1,-1,17,19,21,23,25,-1,-1,-1,-1,-1,27,29,-1,-1,-1,-1,-1,-1],"loss_changes":[1.2137505E4,7.203043E2,1.0866885E3,9.009961E1,4.2180096E2,1.3810962E2,0E0,3.7802856E1,0E0,0E0,6.3316704E1,0E0,0E0,1.0581848E1,8.935793E0,1.8776169E0,3.1274552E0,5.9746094E0,0E0,0E0,0E0,0E0,0E0,1.4104724E-2,1.6129446E-1,0E0,0E0,0E0,0E0,0E0,0E0],"parents":[2147483647,0,0,1,1,2,2,3,3,4,4,5,5,7,7,10,10,13,13,14,14,15,15,16,16,17,17,23,23,24,24],"right_children":[2,4,6,8,10,12,-1,14,-1,-1,16,-1,-1,18,20,22,24,26,-1,-1,-1,-1,-1,28,30,-1,-1,-1,-1,-1,-1],"split_conditions":[9.2E1,8.4E1,2.5E0,8E0,2E0,1E0,2.9529834E0,9E0,-6.61922E-1,-5.1361406E-1,5E0,3.6178437E-1,1.4966446E0,1.31E2,4E0,8.9E1,9E0,1.12E2,-1.934464E-1,-2.2375552E-1,5.124512E-2,1.9495311E-1,3.2179198E-1,1E2,9E0,-3.67611E-1,-5.9102374E-1,6.773128E-2,1.7250253E-2,-6.511869E-2,-1.0184956E-2],"split_indices":[7,7,4,14,5,0,0,11,0,0,14,0,0,1,3,7,0,10,0,0,0,0,0,1,11,0,0,0,0,0,0],"split_type":[0,0,0,0,0,0,0,0,0,0,0,0,0,0,0,0,0,0,0,0,0,0,0,0,0,0,0,0,0,0,0],"sum_hessian":[1.44E2,1.21E2,2.3E1,7.6E1,4.5E1,1.4E1,9E0,3.3E1,4.3E1,1.3E1,3.2E1,2E0,1.2E1,2.5E1,8E0,2E1,1.2E1,2.2E1,3E0,7E0,1E0,1.4E1,6E0,2E0,1E1,1.1E1,1.1E1,1E0,1E0,9E0,1E0],"tree_param":{"num_deleted":"0","num_feature":"15","num_nodes":"31","size_leaf_vector":"1"}},{"base_weights":[2.9681367E-1,-3.3804717E0,1.8977314E1,-5.0622363E0,-4.9185562E-1,1.24489355E1,2.687215E0,-1.8872107E0,-5.4030046E0,-4.659213E-1,1.2910191E0,3.376653E-1,1.358493E0,-2.2448193E-1,4.8682787E-2,-5.536629E0,-1.847446E-1,2.243252E0,-3.465126E-1,-4.1311646E0,-6.100709E-1,1.7675741E-1,2.9420972E-1,5.382169E-1,-5.563013E-1,-4.3180546E-1,-1.5081774E-1,6.4344786E-2,1.638775E-2,-6.410539E-2,-2.4772072E-2],"categories":[],"categories_nodes":[],"categories_segments":[],"categories_sizes":[],"default_left":[0,0,0,0,0,0,0,0,0,0,0,0,0,0,0,0,0,0,0,0,0,0,0,0,0,0,0,0,0,0,0],"id":15,"left_children":[1,3,5,7,9,11,-1,13,15,-1,17,-1,-1,-1,-1,19,-1,21,23,25,-1,-1,-1,27,29,-1,-1,-1,-1,-1,-1],"loss_changes":[1.0024715E4,5.9018274E2,9.024424E2,7.311316E1,3.4778946E2,1.0871924E2,0E0,8.7336235E0,2.25542E1,0E0,5.2234592E1,0E0,0E0,0E0,0E0,2.7121338E1,0E0,1.7805557E0,2.7122922E0,4.2722473E0,0E0,0E0,0E0,1.2729645E-2,1.2888074E-1,0E0,0E0,0E0,0E0,0E0,0E0],"parents":[2147483647,0,0,1,1,2,2,3,3,4,4,5,5,7,7,8,8,10,10,15,15,17,17,18,18,19,19,23,23,24,24],"right_children":[2,4,6,8,10,12,-1,14,16,-1,18,-1,-1,-1,-1,20,-1,22,24,26,-1,-1,-1,28,30,-1,-1,-1,-1,-1,-1],"split_conditions":[9.2E1,8.4E1,2.5E0,5E0,2E0,1E0,2.687215E0,8E0,1E1,-4.659213E-1,5E0,3.376653E-1,1.358493E0,-2.2448193E-1,4.8682787E-2,1.12E2,-1.847446E-1,8.9E1,9E0,7.9E1,-6.100709E-1,1.7675741E-1,2.9420972E-1,1E2,8.7E1,-4.3180546E-1,-1.5081774E-1,6.4344786E-2,1.638775E-2,-6.410539E-2,-2.4772072E-2],"split_indices":[7,7,4,14,5,0,0,0,0,0,14,0,0,0,0,10,0,7,0,7,0,0,0,1,7,0,0,0,0,0,0],"split_type":[0,0,0,0,0,0,0,0,0,0,0,0,0,0,0,0,0,0,0,0,0,0,0,0,0,0,0,0,0,0,0],"sum_hessian":[1.44E2,1.21E2,2.3E1,7.6E1,4.5E1,1.4E1,9E0,8E0,6.8E1,1.3E1,3.2E1,2E0,1.2E1,7E0,1E0,6.5E1,3E0,2E1,1.2E1,2.1E1,4.4E1,1.4E1,6E0,2E0,1E1,1.9E1,2E0,1E0,1E0,7E0,3E0],"tree_param":{"num_deleted":"0","num_feature":"15","num_nodes":"31","size_leaf_vector":"1"}},{"base_weights":[2.8662926E-1,-3.0551815E0,1.7262224E1,-4.5761847E0,-4.4273728E-1,1.13171215E1,2.4453655E1,-3.3519065E0,-5.4182134E0,-4.2265722E-1,1.1759422E0,3.1515428E-1,1.2330939E0,2.5608547E0,7.029808E-1,-3.8495104E0,-1.5419502E0,-5.470631E-1,-1.5821305E-1,2.041354E0,-3.1248754E-1,-4.073788E0,-1.5975372E-1,-1.8503156E0,4.6248626E-2,1.4402022E0,2.456928E-1,5.113055E-1,-5.087504E-1,-2.9667276E-1,-4.8413664E-1,-2.20462E-1,-9.448562E-2,1.5503532E-1,6.296819E-2,6.1127473E-2,1.5568352E-2,-6.424888E-2,-2.9022027E-2],"categories":[],"categories_nodes":[],"categories_segments":[],"categories_sizes":[],"default_left":[0,0,0,0,0,0,0,0,0,0,0,0,0,0,0,0,0,0,0,0,0,0,0,0,0,0,0,0,0,0,0,0,0,0,0,0,0,0,0],"id":16,"left_children":[1,3,5,7,9,11,13,15,17,-1,19,-1,-1,-1,-1,21,23,-1,-1,25,27,29,-1,31,-1,33,-1,35,37,-1,-1,-1,-1,-1,-1,-1,-1,-1,-1],"loss_changes":[8.278476E3,4.8274548E2,7.493457E2,6.1216064E1,2.867117E2,8.531445E1,2.1203613E1,2.4686035E1,1.9213867E-1,0E0,4.3145344E1,0E0,0E0,0E0,0E0,6.623749E0,6.4186344E0,0E0,0E0,1.7078171E0,2.3619664E0,5.1813354E0,0E0,4.834175E-1,0E0,5.8460236E-3,0E0,1.1488378E-2,1.3502145E-1,0E0,0E0,0E0,0E0,0E0,0E0,0E0,0E0,0E0,0E0],"parents":[2147483647,0,0,1,1,2,2,3,3,4,4,5,5,6,6,7,7,8,8,10,10,15,15,16,16,19,19,20,20,21,21,23,23,25,25,27,27,28,28],"right_children":[2,4,6,8,10,12,14,16,18,-1,20,-1,-1,-1,-1,22,24,-1,-1,26,28,30,-1,32,-1,34,-1,36,38,-1,-1,-1,-1,-1,-1,-1,-1,-1,-1],"split_conditions":[9.2E1,8.4E1,2.5E0,8E0,2E0,1E0,1.64E2,9E0,1E1,-4.2265722E-1,5E0,3.1515428E-1,1.2330939E0,2.5608547E0,7.029808E-1,1.31E2,4E0,-5.470631E-1,-1.5821305E-1,8.8E1,9E0,1.12E2,-1.5975372E-1,7.4E1,4.6248626E-2,3.62E2,2.456928E-1,1E2,4E0,-2.9667276E-1,-4.8413664E-1,-2.20462E-1,-9.448562E-2,1.5503532E-1,6.296819E-2,6.1127473E-2,1.5568352E-2,-6.424888E-2,-2.9022027E-2],"split_indices":[7,7,4,14,5,0,1,11,0,0,14,0,0,0,0,1,3,0,0,7,0,10,0,7,0,10,0,1,11,0,0,0,0,0,0,0,0,0,0],"split_type":[0,0,0,0,0,0,0,0,0,0,0,0,0,0,0,0,0,0,0,0,0,0,0,0,0,0,0,0,0,0,0,0,0,0,0,0,0,0,0],"sum_hessian":[1.44E2,1.21E2,2.3E1,7.6E1,4.5E1,1.4E1,9E0,3.3E1,4.3E1,1.3E1,3.2E1,2E0,1.2E1,8E0,1E0,2.5E1,8E0,4.2E1,1E0,2E1,1.2E1,2.2E1,3E0,7E0,1E0,1E1,1E1,2E0,1E1,1.1E1,1.1E1,4E0,3E0,8E0,2E0,1E0,1E0,5E0,5E0],"tree_param":{"num_deleted":"0","num_feature":"15","num_nodes":"39","size_leaf_vector":"1"}},{"base_weights":[2.7811816E-1,-2.7651558E0,1.5736506E1,-4.14343E0,-3.979321E-1,1.0288627E1,2.2334675E1,-2.39408E0,-4.5991783E0,-3.8341048E-1,1.0718967E0,1.1508653E0,4.0563926E-1,2.3332236E0,6.6783184E-1,-3.1873864E-1,-1.0040237E0,-1.9370817E-1,-4.7053046E0,1.7609777E0,-4.6635437E-1,4.393616E-2,-1.2729876E-1,-4.7896758E-1,-1.590072E-1,3.704033E-2,1.8757751E0,-5.419533E-1,-1.9856787E-1,1.02433264E-1,2.0778301E-1,-1.1273098E-2,-5.8716636E-2,-3.5349466E-2,-2.909406E-3],"categories":[],"categories_nodes":[],"categories_segments":[],"categories_sizes":[],"default_left":[0,0,0,0,0,0,0,0,0,0,0,0,0,0,0,0,0,0,0,0,0,0,0,0,0,0,0,0,0,0,0,0,0,0,0],"id":17,"left_children":[1,3,5,7,9,11,13,15,17,-1,19,-1,-1,-1,-1,-1,21,-1,23,25,27,-1,-1,-1,-1,-1,29,31,33,-1,-1,-1,-1,-1,-1],"loss_changes":[6.8649097E3,3.9639868E2,6.329116E2,5.0378418E1,2.3643669E2,6.7368774E1,3.6132812E-1,1.6649124E1,7.83667E0,0E0,3.5800564E1,0E0,0E0,0E0,0E0,0E0,3.6650496E0,0E0,7.3654785E0,2.976799E0,1.1507368E-1,0E0,0E0,0E0,0E0,0E0,1.4844208E0,8.905983E-2,9.473951E-2,0E0,0E0,0E0,0E0,0E0,0E0],"parents":[2147483647,0,0,1,1,2,2,3,3,4,4,5,5,6,6,7,7,8,8,10,10,16,16,18,18,19,19,20,20,26,26,27,27,28,28],"right_children":[2,4,6,8,10,12,14,16,18,-1,20,-1,-1,-1,-1,-1,22,-1,24,26,28,-1,-1,-1,-1,-1,30,32,34,-1,-1,-1,-1,-1,-1],"split_conditions":[9.2E1,8.4E1,2.5E0,2.8E1,2E0,5E1,1.64E2,1.7E1,9.3E1,-3.8341048E-1,1.3E1,1.1508653E0,4.0563926E-1,2.3332236E0,6.6783184E-1,-3.1873864E-1,2E1,-1.9370817E-1,1E1,8E0,8.7E1,4.393616E-2,-1.2729876E-1,-4.7896758E-1,-1.590072E-1,3.704033E-2,9.8E1,6E0,6.3E1,1.02433264E-1,2.0778301E-1,-1.1273098E-2,-5.8716636E-2,-3.5349466E-2,-2.909406E-3],"split_indices":[7,7,4,1,5,1,1,1,10,0,0,0,0,0,0,0,1,0,0,11,7,0,0,0,0,0,10,1,1,0,0,0,0,0,0],"split_type":[0,0,0,0,0,0,0,0,0,0,0,0,0,0,0,0,0,0,0,0,0,0,0,0,0,0,0,0,0,0,0,0,0,0,0],"sum_hessian":[1.44E2,1.21E2,2.3E1,7.6E1,4.5E1,1.4E1,9E0,1.7E1,5.9E1,1.3E1,3.2E1,1.1E1,3E0,8E0,1E0,1E1,7E0,3E0,5.6E1,2.2E1,1E1,1E0,6E0,5.4E1,2E0,2E0,2E1,7E0,3E0,5E0,1.5E1,1E0,6E0,1E0,2E0],"tree_param":{"num_deleted":"0","num_feature":"15","num_nodes":"35","size_leaf_vector":"1"}},{"base_weights":[2.722333E-1,-2.4999368E0,1.4352756E1,-3.7451105E0,-3.612781E-1,9.363532E0,2.0401313E0,-2.467405E0,-4.277139E0,-3.478081E-1,9.7194964E-1,2.671013E-1,1.0187688E0,-2.6049962E0,4.1739274E-2,-4.4205695E-1,-1.414974E-1,1.6946241E0,-2.7021277E-1,-3.2164118E-1,-1.938527E0,1.2985687E0,2.3012249E-1,4.0413287E-2,-4.295604E-1,-2.4301557E-1,-8.7799616E-2,1.345049E-1,3.239231E-2,-5.518198E-2,-2.357076E-2],"categories":[],"categories_nodes":[],"categories_segments":[],"categories_sizes":[],"default_left":[0,0,0,0,0,0,0,0,0,0,0,0,0,0,0,0,0,0,0,0,0,0,0,0,0,0,0,0,0,0,0],"id":18,"left_children":[1,3,5,7,9,11,-1,13,15,-1,17,-1,-1,19,-1,-1,-1,21,23,-1,25,27,-1,-1,29,-1,-1,-1,-1,-1,-1],"loss_changes":[5.6957534E3,3.235332E2,5.332344E2,4.1789307E1,1.9452928E2,5.552368E1,0E0,1.1010361E1,1.55026245E1,0E0,3.0081316E1,0E0,0E0,3.5446625E0,0E0,0E0,0E0,2.0569E0,1.5705192E0,0E0,5.165756E0,2.4383163E-1,0E0,0E0,1.306355E-1,0E0,0E0,0E0,0E0,0E0,0E0],"parents":[2147483647,0,0,1,1,2,2,3,3,4,4,5,5,7,7,8,8,10,10,13,13,17,17,18,18,20,20,21,21,24,24],"right_children":[2,4,6,8,10,12,-1,14,16,-1,18,-1,-1,20,-1,-1,-1,22,24,-1,26,28,-1,-1,30,-1,-1,-1,-1,-1,-1],"split_conditions":[9.2E1,8.4E1,2.5E0,1.08E2,2E0,1E0,2.0401313E0,7E0,4E1,-3.478081E-1,5E0,2.671013E-1,1.0187688E0,6E0,4.1739274E-2,-4.4205695E-1,-1.414974E-1,8.9E1,9E0,-3.2164118E-1,7.3E1,3E0,2.3012249E-1,4.0413287E-2,4E0,-2.4301557E-1,-8.7799616E-2,1.345049E-1,3.239231E-2,-5.518198E-2,-2.357076E-2],"split_indices":[7,7,4,10,5,0,0,0,6,0,14,0,0,0,0,0,0,7,0,0,7,2,0,0,11,0,0,0,0,0,0],"split_type":[0,0,0,0,0,0,0,0,0,0,0,0,0,0,0,0,0,0,0,0,0,0,0,0,0,0,0,0,0,0,0],"sum_hessian":[1.44E2,1.21E2,2.3E1,7.6E1,4.5E1,1.4E1,9E0,2.4E1,5.2E1,1.3E1,3.2E1,2E0,1.2E1,2.3E1,1E0,4.9E1,3E0,2E1,1.2E1,1E1,1.3E1,1.4E1,6E0,2E0,1E1,8E0,5E0,1.3E1,1E0,5E0,5E0],"tree_param":{"num_deleted":"0","num_feature":"15","num_nodes":"31","size_leaf_vector":"1"}},{"base_weights":[2.597865E-1,-2.2596433E0,1.3056064E1,-3.3861094E0,-3.2491422E-1,8.512904E0,1.8565197E1,-2.4666255E0,-4.019663E-1,-3.1551164E-1,8.8562346E-1,9.519823E-1,3.3639202E-1,1.9444811E0,5.3243333E-1,-3.6722958E-1,-1.9544079E0,1.5440668E0,-2.461407E-1,-2.064306E0,3.9652254E-2,1.1798373E0,2.1039777E-1,3.7719092E-1,-3.937638E-1,-2.1063541E-1,-5.275769E-2,1.320533E-1,6.3433915E-2,4.5661356E-2,1.0917283E-2,-5.0583523E-2,-2.160651E-2],"categories":[],"categories_nodes":[],"categories_segments":[],"categories_sizes":[],"default_left":[0,0,0,0,0,0,0,0,0,0,0,0,0,0,0,0,0,0,0,0,0,0,0,0,0,0,0,0,0,0,0,0,0],"id":19,"left_children":[1,3,5,7,9,11,13,15,-1,-1,17,-1,-1,-1,-1,-1,19,21,23,25,-1,27,-1,29,31,-1,-1,-1,-1,-1,-1,-1,-1],"loss_changes":[4.704203E3,2.6478735E2,4.4264917E2,3.4940735E1,1.603933E2,4.574524E1,1.2937744E1,1.3820068E1,0E0,0E0,2.497174E1,0E0,0E0,0E0,0E0,0E0,7.5359726E0,1.800312E0,1.34476E0,5.0414276E-1,0E0,3.1357193E-1,0E0,1.401034E-2,1.0977101E-1,0E0,0E0,0E0,0E0,0E0,0E0,0E0,0E0],"parents":[2147483647,0,0,1,1,2,2,3,3,4,4,5,5,6,6,7,7,10,10,16,16,17,17,18,18,19,19,21,21,23,23,24,24],"right_children":[2,4,6,8,10,12,14,16,-1,-1,18,-1,-1,-1,-1,-1,20,22,24,26,-1,28,-1,30,32,-1,-1,-1,-1,-1,-1,-1,-1],"split_conditions":[9.2E1,8.4E1,2.5E0,8E0,2E0,5E1,1.64E2,2E0,-4.019663E-1,-3.1551164E-1,5E0,9.519823E-1,3.3639202E-1,1.9444811E0,5.3243333E-1,-3.6722958E-1,5E0,8.9E1,9E0,5.5E1,3.9652254E-2,3.62E2,2.1039777E-1,1E2,4E0,-2.1063541E-1,-5.275769E-2,1.320533E-1,6.3433915E-2,4.5661356E-2,1.0917283E-2,-5.0583523E-2,-2.160651E-2],"split_indices":[7,7,4,14,5,1,1,0,0,0,14,0,0,0,0,0,3,7,0,8,0,10,0,1,11,0,0,0,0,0,0,0,0],"split_type":[0,0,0,0,0,0,0,0,0,0,0,0,0,0,0,0,0,0,0,0,0,0,0,0,0,0,0,0,0,0,0,0,0],"sum_hessian":[1.44E2,1.21E2,2.3E1,7.6E1,4.5E1,1.4E1,9E0,3.3E1,4.3E1,1.3E1,3.2E1,1.1E1,3E0,8E0,1E0,8E0,2.5E1,2E1,1.2E1,2.4E1,1E0,1.4E1,6E0,2E0,1E1,2.3E1,1E0,1E1,4E0,1E0,1E0,5E0,5E0],"tree_param":{"num_deleted":"0","num_feature":"15","num_nodes":"33","size_leaf_vector":"1"}},{"base_weights":[2.5344262E-1,-2.0412052E0,1.1907342E1,-3.0603938E0,-2.9079792E-1,7.747506E0,1.6956362E1,-3.8216212E-1,-2.4026184E0,-2.862141E-1,8.08887E-1,2.2686844E-1,8.415888E-1,1.7716378E0,5.0581133E-1,-1.320748E0,-2.8634663E0,1.4089873E0,-2.2272785E-1,-2.0726573E-1,-7.3752767E-1,-3.0526648E0,-1.3069397E-1,1.0748858E0,1.9236353E-1,3.5833105E-1,-3.6095047E-1,-9.031853E-2,3.7669566E-2,-1.134572E-1,-3.1652322E-1,1.1171347E-1,2.4170114E-2,4.337826E-2,1.0371399E-2,-4.266837E-2,-1.3924646E-2],"categories":[],"categories_nodes":[],"categories_segments":[],"categories_sizes":[],"default_left":[0,0,0,0,0,0,0,0,0,0,0,0,0,0,0,0,0,0,0,0,0,0,0,0,0,0,0,0,0,0,0,0,0,0,0,0,0],"id":20,"left_children":[1,3,5,7,9,11,13,-1,15,-1,17,-1,-1,-1,-1,19,21,23,25,-1,27,29,-1,31,-1,33,35,-1,-1,-1,-1,-1,-1,-1,-1,-1,-1],"loss_changes":[3.9018364E3,2.1675745E2,3.727046E2,2.937323E1,1.3238785E2,3.583618E1,8.1689453E-1,0E0,1.8155502E1,0E0,2.0743212E1,0E0,0E0,0E0,0E0,5.0492916E0,4.8451233E0,1.543148E0,1.1734409E0,0E0,2.1860223E0,2.0225983E0,0E0,2.5800323E-1,0E0,1.264444E-2,1.00892186E-1,0E0,0E0,0E0,0E0,0E0,0E0,0E0,0E0,0E0,0E0],"parents":[2147483647,0,0,1,1,2,2,3,3,4,4,5,5,6,6,8,8,10,10,15,15,16,16,17,17,18,18,20,20,21,21,23,23,25,25,26,26],"right_children":[2,4,6,8,10,12,14,-1,16,-1,18,-1,-1,-1,-1,20,22,24,26,-1,28,30,-1,32,-1,34,36,-1,-1,-1,-1,-1,-1,-1,-1,-1,-1],"split_conditions":[9.2E1,8.4E1,2.5E0,5E0,2E0,1E0,1.64E2,-3.8216212E-1,2.8E1,-2.862141E-1,5E0,2.2686844E-1,8.415888E-1,1.7716378E0,5.0581133E-1,7.3E1,5.3E1,8.9E1,9E0,-2.0726573E-1,5E0,9.2E1,-1.3069397E-1,3E0,1.9236353E-1,1E2,8.7E1,-9.031853E-2,3.7669566E-2,-1.134572E-1,-3.1652322E-1,1.1171347E-1,2.4170114E-2,4.337826E-2,1.0371399E-2,-4.266837E-2,-1.3924646E-2],"split_indices":[7,7,4,0,5,0,1,0,1,0,14,0,0,0,0,7,8,7,0,0,3,10,0,2,0,1,7,0,0,0,0,0,0,0,0,0,0],"split_type":[0,0,0,0,0,0,0,0,0,0,0,0,0,0,0,0,0,0,0,0,0,0,0,0,0,0,0,0,0,0,0,0,0,0,0,0,0],"sum_hessian":[1.44E2,1.21E2,2.3E1,7.6E1,4.5E1,1.4E1,9E0,3.3E1,4.3E1,1.3E1,3.2E1,2E0,1.2E1,8E0,1E0,1.4E1,2.9E1,2E1,1.2E1,5E0,9E0,2.5E1,4E0,1.4E1,6E0,2E0,1E1,8E0,1E0,2E0,2.3E1,1.3E1,1E0,1E0,1E0,7E0,3E0],"tree_param":{"num_deleted":"0","num_feature":"15","num_nodes":"37","size_leaf_vector":"1"}},{"base_weights":[2.4314891E-1,-1.846622E0,1.085602E1,-2.7699745E0,-2.6086605E-1,7.0439844E0,1.5488471E0,-1.8154848E0,-3.1679418E0,-2.5963712E-1,7.378593E-1,7.875716E-1,2.7877942E-1,-2.602122E0,-1.2922366E0,-3.2801793E0,-9.7299054E-2,1.2164935E0,-3.2999942E-1,-2.7718946E-1,-6.2197115E-2,-5.1629615E-1,-1.7837653E-1,-3.4028116E-1,-2.0407512E0,2.2192383E-2,1.3006467E0,-4.329157E-1,-1.7208321E-1,-7.8483745E-2,1.9288508E-2,-5.9722837E-2,-2.4987145E-1,6.23745E-2,1.4731944E-1,-3.2877922E-3,-5.0634768E-2,-2.6731014E-2,1.2247086E-3],"categories":[],"categories_nodes":[],"categories_segments":[],"categories_sizes":[],"default_left":[0,0,0,0,0,0,0,0,0,0,0,0,0,0,0,0,0,0,0,0,0,0,0,0,0,0,0,0,0,0,0,0,0,0,0,0,0,0,0],"id":21,"left_children":[1,3,5,7,9,11,-1,13,15,-1,17,-1,-1,19,21,23,-1,25,27,-1,-1,29,-1,-1,31,-1,33,35,37,-1,-1,-1,-1,-1,-1,-1,-1,-1,-1],"loss_changes":[3.2359248E3,1.7791125E2,3.1471704E2,2.3497498E1,1.0921205E2,3.1144226E1,0E0,6.9276123E0,9.865295E0,0E0,1.7268192E1,0E0,0E0,1.3015366E0,5.5627956E0,6.5545654E-1,0E0,1.6363678E0,1.0427618E-1,0E0,0E0,1.6749389E0,0E0,0E0,3.1352596E0,0E0,1.5338593E0,1.5960562E-1,1.0859303E-1,0E0,0E0,0E0,0E0,0E0,0E0,0E0,0E0,0E0,0E0],"parents":[2147483647,0,0,1,1,2,2,3,3,4,4,5,5,7,7,8,8,10,10,13,13,14,14,15,15,17,17,18,18,21,21,24,24,26,26,27,27,28,28],"right_children":[2,4,6,8,10,12,-1,14,16,-1,18,-1,-1,20,22,24,-1,26,28,-1,-1,30,-1,-1,32,-1,34,36,38,-1,-1,-1,-1,-1,-1,-1,-1,-1,-1],"split_conditions":[9.2E1,8.4E1,2.5E0,1.08E2,2E0,5E1,1.5488471E0,7.2E1,1E1,-2.5963712E-1,1.3E1,7.875716E-1,2.7877942E-1,1.14E2,2.6E1,3E0,-9.7299054E-2,8E0,4E0,-2.7718946E-1,-6.2197115E-2,7.6E1,-1.7837653E-1,-3.4028116E-1,3E1,2.2192383E-2,9.8E1,6E0,8.7E1,-7.8483745E-2,1.9288508E-2,-5.9722837E-2,-2.4987145E-1,6.23745E-2,1.4731944E-1,-3.2877922E-3,-5.0634768E-2,-2.6731014E-2,1.2247086E-3],"split_indices":[7,7,4,10,5,1,0,7,0,0,0,0,0,1,1,2,0,11,11,0,0,7,0,0,6,0,10,1,7,0,0,0,0,0,0,0,0,0,0],"split_type":[0,0,0,0,0,0,0,0,0,0,0,0,0,0,0,0,0,0,0,0,0,0,0,0,0,0,0,0,0,0,0,0,0,0,0,0,0,0,0],"sum_hessian":[1.44E2,1.21E2,2.3E1,7.6E1,4.5E1,1.4E1,9E0,2.4E1,5.2E1,1.3E1,3.2E1,1.1E1,3E0,8E0,1.6E1,4.9E1,3E0,2.2E1,1E1,7E0,1E0,7E0,9E0,4.3E1,6E0,2E0,2E1,5E0,5E0,5E0,2E0,2E0,4E0,5E0,1.5E1,1E0,4E0,3E0,2E0],"tree_param":{"num_deleted":"0","num_feature":"15","num_nodes":"39","size_leaf_vector":"1"}},{"base_weights":[2.2699866E-1,-1.673692E0,9.879384E0,-2.5101738E0,-2.3710959E-1,6.410674E0,1.4094511E1,-8.860423E-1,-2.6856377E0,-2.3552798E-1,6.686932E-1,7.153773E-1,2.5787106E-1,1.4764838E0,4.0307847E-1,-1.0838518E-1,3.48217E-2,-3.1230855E-1,-2.1978915E0,1.1695983E0,-1.9189923E-1,-2.3475351E0,-1.05841696E-1,8.756147E-1,1.6324779E0,2.8391075E-1,-3.042202E-1,-1.3941248E-1,-2.5675246E-1,1.01157E-1,4.013901E-2,1.8569794E-1,7.141495E-2,3.3843424E-2,8.743191E-3,-3.986114E-2,-1.5912564E-2],"categories":[],"categories_nodes":[],"categories_segments":[],"categories_sizes":[],"default_left":[0,0,0,0,0,0,0,0,0,0,0,0,0,0,0,0,0,0,0,0,0,0,0,0,0,0,0,0,0,0,0,0,0,0,0,0,0],"id":22,"left_children":[1,3,5,7,9,11,13,15,17,-1,19,-1,-1,-1,-1,-1,-1,-1,21,23,25,27,-1,29,31,33,35,-1,-1,-1,-1,-1,-1,-1,-1,-1,-1],"loss_changes":[2.676734E3,1.4600916E2,2.6055005E2,1.956363E1,8.9832596E1,2.426538E1,7.946167E0,2.5747495E0,7.857849E0,0E0,1.4449927E1,0E0,0E0,0E0,0E0,0E0,0E0,0E0,3.6538696E0,1.428236E0,7.811361E-1,2.9225006E0,0E0,5.610657E-1,1.17004395E-1,2.548188E-3,8.7222815E-2,0E0,0E0,0E0,0E0,0E0,0E0,0E0,0E0,0E0,0E0],"parents":[2147483647,0,0,1,1,2,2,3,3,4,4,5,5,6,6,7,7,8,8,10,10,18,18,19,19,20,20,21,21,23,23,24,24,25,25,26,26],"right_children":[2,4,6,8,10,12,14,16,18,-1,20,-1,-1,-1,-1,-1,-1,-1,22,24,26,28,-1,30,32,34,36,-1,-1,-1,-1,-1,-1,-1,-1,-1,-1],"split_conditions":[9.2E1,8.4E1,2.5E0,5E0,2E0,5E1,1.64E2,8E0,5E0,-2.3552798E-1,5E0,7.153773E-1,2.5787106E-1,1.4764838E0,4.0307847E-1,-1.0838518E-1,3.48217E-2,-3.1230855E-1,5.3E1,8.9E1,9E0,6E0,-1.05841696E-1,3.62E2,1.12E2,1E2,4E0,-1.3941248E-1,-2.5675246E-1,1.01157E-1,4.013901E-2,1.8569794E-1,7.141495E-2,3.3843424E-2,8.743191E-3,-3.986114E-2,-1.5912564E-2],"split_indices":[7,7,4,14,5,1,1,0,0,0,14,0,0,0,0,0,0,0,8,7,0,14,0,10,1,1,11,0,0,0,0,0,0,0,0,0,0],"split_type":[0,0,0,0,0,0,0,0,0,0,0,0,0,0,0,0,0,0,0,0,0,0,0,0,0,0,0,0,0,0,0,0,0,0,0,0,0],"sum_hessian":[1.44E2,1.21E2,2.3E1,7.6E1,4.5E1,1.4E1,9E0,8E0,6.8E1,1.3E1,3.2E1,1.1E1,3E0,8E0,1E0,7E0,1E0,3.3E1,3.5E1,2E1,1.2E1,3E1,5E0,1.4E1,6E0,2E0,1E1,7E0,2.3E1,1E1,4E0,4E0,2E0,1E0,1E0,5E0,5E0],"tree_param":{"num_deleted":"0","num_feature":"15","num_nodes":"37","size_leaf_vector":"1"}},{"base_weights":[2.1888211E-1,-1.5123737E0,9.010312E0,-2.2747624E0,-2.0332347E-1,5.8344893E0,1.2873014E1,-1.5912163E0,-2.5920365E0,-2.6010564E-1,5.34965E-1,1.7596741E-1,6.3260245E-1,1.3452406E0,3.8292465E-1,-2.236517E0,-1.2017994E0,-2.6172286E-1,-6.662216E-2,9.9894005E-1,-3.6275557E-1,-2.510009E-1,-8.5286334E-2,-6.194389E-1,-1.4898897E0,6.6574407E-1,1.2766575E0,-5.4881096E-1,-1.7786956E-1,-8.162556E-2,-2.1855831E-2,-1.5604213E-1,-3.5702135E-2,4.6946477E-2,1.5105477E-1,1.3342606E-1,3.2151222E-2,-1.1302949E-3,-6.54052E-2,-2.1227075E-2,-4.9777348E-3],"categories":[],"categories_nodes":[],"categories_segments":[],"categories_sizes":[],"default_left":[0,0,0,0,0,0,0,0,0,0,0,0,0,0,0,0,0,0,0,0,0,0,0,0,0,0,0,0,0,0,0,0,0,0,0,0,0,0,0,0,0],"id":23,"left_children":[1,3,5,7,9,11,13,15,17,-1,19,-1,-1,-1,-1,21,23,-1,-1,25,27,-1,-1,29,31,33,35,37,39,-1,-1,-1,-1,-1,-1,-1,-1,-1,-1,-1,-1],"loss_changes":[2.220558E3,1.2129413E2,2.1930676E2,1.2574585E1,8.2821526E1,1.8911987E1,8.8623047E-1,4.0970154E0,7.3062134E-1,0E0,1.535709E1,0E0,0E0,0E0,0E0,1.265068E0,2.2647762E0,0E0,0E0,1.3708973E0,3.4957075E-1,0E0,0E0,4.5280027E-1,4.017334E-1,1.4464779E0,2.3124886E-1,3.3201456E-1,2.468592E-2,0E0,0E0,0E0,0E0,0E0,0E0,0E0,0E0,0E0,0E0,0E0,0E0],"parents":[2147483647,0,0,1,1,2,2,3,3,4,4,5,5,6,6,7,7,8,8,10,10,15,15,16,16,19,19,20,20,23,23,24,24,25,25,26,26,27,27,28,28],"right_children":[2,4,6,8,10,12,14,16,18,-1,20,-1,-1,-1,-1,22,24,-1,-1,26,28,-1,-1,30,32,34,36,38,40,-1,-1,-1,-1,-1,-1,-1,-1,-1,-1,-1,-1],"split_conditions":[9.2E1,2E0,2.5E0,1.12E2,2E0,1E0,1.64E2,7.2E1,1E1,-2.6010564E-1,1.3E1,1.7596741E-1,6.3260245E-1,1.3452406E0,3.8292465E-1,7.2E1,9.9E1,-2.6172286E-1,-6.662216E-2,8.8E1,8.5E1,-2.510009E-1,-8.5286334E-2,7.4E1,1.3E2,1.37E2,1.4E1,6E0,6.5E0,-8.162556E-2,-2.1855831E-2,-1.5604213E-1,-3.5702135E-2,4.6946477E-2,1.5105477E-1,1.3342606E-1,3.2151222E-2,-1.1302949E-3,-6.54052E-2,-2.1227075E-2,-4.9777348E-3],"split_indices":[7,5,4,10,3,0,1,7,0,0,0,0,0,0,0,1,10,0,0,7,7,0,0,7,1,1,3,1,12,0,0,0,0,0,0,0,0,0,0,0,0],"split_type":[0,0,0,0,0,0,0,0,0,0,0,0,0,0,0,0,0,0,0,0,0,0,0,0,0,0,0,0,0,0,0,0,0,0,0,0,0,0,0,0,0],"sum_hessian":[1.44E2,1.21E2,2.3E1,7.6E1,4.5E1,1.4E1,9E0,2.6E1,5E1,1E1,3.5E1,2E0,1.2E1,8E0,1E0,8E0,1.8E1,4.9E1,1E0,2.3E1,1.2E1,6E0,2E0,7E0,1.1E1,1.2E1,1.1E1,5E0,7E0,4E0,3E0,1E1,1E0,1.1E1,1E0,1E1,1E0,1E0,4E0,5E0,2E0],"tree_param":{"num_deleted":"0","num_feature":"15","num_nodes":"41","size_leaf_vector":"1"}},{"base_weights":[2.0794298E-1,-1.368916E0,8.214978E0,-2.0636222E0,-1.7627929E-1,5.304948E0,1.1758527E0,-1.4883821E0,-2.4612253E0,-1.9010954E-1,5.6080264E-1,5.9181273E-1,2.1391736E-1,-1.733895E0,-6.137469E-1,-2.4890254E-1,-6.329107E-2,9.8075974E-1,-1.607283E-1,-1.8518302E0,-6.2229346E-2,-9.96682E-2,-1.08062364E-1,7.2365314E-1,1.3915939E0,2.4334972E-1,-2.5631973E-1,-1.347802E-1,-2.2015393E-1,3.07333E-2,-2.8874446E-2,5.7033975E-2,1.4350204E-1,1.6016786E-1,5.7758838E-2,3.054371E-2,5.958748E-3,-7.783461E-3,-3.1352233E-2],"categories":[],"categories_nodes":[],"categories_segments":[],"categories_sizes":[],"default_left":[0,0,0,0,0,0,0,0,0,0,0,0,0,0,0,0,0,0,0,0,0,0,0,0,0,0,0,0,0,0,0,0,0,0,0,0,0,0,0],"id":24,"left_children":[1,3,5,7,9,11,-1,13,15,-1,17,-1,-1,19,21,-1,-1,23,25,27,-1,-1,29,31,33,35,37,-1,-1,-1,-1,-1,-1,-1,-1,-1,-1,-1,-1],"loss_changes":[1.8420107E3,1.0071715E2,1.8510559E2,1.3947968E1,5.954735E1,1.6457916E1,0E0,6.2367935E0,6.6104126E-1,0E0,1.0157034E1,0E0,0E0,2.2561417E0,1.6350951E0,0E0,0E0,1.2111588E0,5.6451845E-1,1.0868149E0,0E0,0E0,4.640132E-1,8.174839E-1,2.7195835E-1,1.6027719E-2,8.790505E-2,0E0,0E0,0E0,0E0,0E0,0E0,0E0,0E0,0E0,0E0,0E0,0E0],"parents":[2147483647,0,0,1,1,2,2,3,3,4,4,5,5,7,7,8,8,10,10,13,13,14,14,17,17,18,18,19,19,22,22,23,23,24,24,25,25,26,26],"right_children":[2,4,6,8,10,12,-1,14,16,-1,18,-1,-1,20,22,-1,-1,24,26,28,-1,-1,30,32,34,36,38,-1,-1,-1,-1,-1,-1,-1,-1,-1,-1,-1,-1],"split_conditions":[9.2E1,8.4E1,2.5E0,8E0,2E0,5E1,1.1758527E0,9E0,1E1,-1.9010954E-1,5E0,5.9181273E-1,2.1391736E-1,1.31E2,7.4E1,-2.4890254E-1,-6.329107E-2,8.9E1,9E0,1.12E2,-6.2229346E-2,-9.96682E-2,2E1,1.36E2,1.12E2,1E2,7.7E1,-1.347802E-1,-2.2015393E-1,3.07333E-2,-2.8874446E-2,5.7033975E-2,1.4350204E-1,1.6016786E-1,5.7758838E-2,3.054371E-2,5.958748E-3,-7.783461E-3,-3.1352233E-2],"split_indices":[7,7,4,14,5,1,0,11,0,0,14,0,0,1,7,0,0,7,0,10,0,0,1,1,1,1,1,0,0,0,0,0,0,0,0,0,0,0,0],"split_type":[0,0,0,0,0,0,0,0,0,0,0,0,0,0,0,0,0,0,0,0,0,0,0,0,0,0,0,0,0,0,0,0,0,0,0,0,0,0,0],"sum_hessian":[1.44E2,1.21E2,2.3E1,7.6E1,4.5E1,1.4E1,9E0,3.3E1,4.3E1,1.3E1,3.2E1,1.1E1,3E0,2.5E1,8E0,4.2E1,1E0,2E1,1.2E1,2.2E1,3E0,4E0,4E0,1.4E1,6E0,2E0,1E1,1.1E1,1.1E1,1E0,3E0,1.3E1,1E0,4E0,2E0,1E0,1E0,3E0,7E0],"tree_param":{"num_deleted":"0","num_feature":"15","num_nodes":"39","size_leaf_vector":"1"}},{"base_weights":[1.9666664E-1,-1.2369542E0,7.476045E0,-1.8680024E0,-1.5374404E-1,4.828169E0,1.0700254E1,-6.312134E-1,-2.0022502E0,-1.7245649E-1,5.173237E-1,5.3756326E-1,1.978735E-1,1.1211426E0,3.0498582E-1,-7.831065E-1,2.919655E-2,-2.3315957E-1,-1.6355838E0,8.5427725E-1,-2.3424496E-1,-9.948578E-2,-4.5708418E-1,-2.1648644E-1,-1.3487502E0,6.301923E-1,1.1956625E0,-3.2076454E-1,-1.0868454E-1,-5.720457E-2,1.3809204E-4,-4.8483387E-2,-1.5313573E-1,4.9043577E-2,1.3632698E-1,1.2835672E-1,2.9016495E-2,-6.845474E-4,-3.821793E-2,-1.9589186E-2,4.3820064E-3],"categories":[],"categories_nodes":[],"categories_segments":[],"categories_sizes":[],"default_left":[0,0,0,0,0,0,0,0,0,0,0,0,0,0,0,0,0,0,0,0,0,0,0,0,0,0,0,0,0,0,0,0,0,0,0,0,0,0,0,0,0],"id":25,"left_children":[1,3,5,7,9,11,13,15,17,-1,19,-1,-1,-1,-1,21,-1,-1,23,25,27,-1,29,-1,31,33,35,37,39,-1,-1,-1,-1,-1,-1,-1,-1,-1,-1,-1,-1],"loss_changes":[1.5224485E3,8.310689E1,1.5323267E2,1.1520935E1,4.9382008E1,1.2762512E1,4.913452E0,1.4906604E0,4.518921E0,0E0,8.557153E0,0E0,0E0,0E0,0E0,9.755182E-2,0E0,0E0,2.5454865E0,1.0059872E0,8.4635615E-2,0E0,2.6431906E-1,0E0,3.3592339E0,9.7064066E-1,2.6433372E-1,1.1305934E-1,8.83811E-2,0E0,0E0,0E0,0E0,0E0,0E0,0E0,0E0,0E0,0E0,0E0,0E0],"parents":[2147483647,0,0,1,1,2,2,3,3,4,4,5,5,6,6,7,7,8,8,10,10,15,15,18,18,19,19,20,20,22,22,24,24,25,25,26,26,27,27,28,28],"right_children":[2,4,6,8,10,12,14,16,18,-1,20,-1,-1,-1,-1,22,-1,-1,24,26,28,-1,30,-1,32,34,36,38,40,-1,-1,-1,-1,-1,-1,-1,-1,-1,-1,-1,-1],"split_conditions":[9.2E1,8.4E1,2.5E0,5E0,2E0,5E1,1.64E2,8E0,5E0,-1.7245649E-1,1.3E1,5.3756326E-1,1.978735E-1,1.1211426E0,3.0498582E-1,7.3E1,2.919655E-2,-2.3315957E-1,4.7E1,8.9E1,4E0,-9.948578E-2,2.5E1,-2.1648644E-1,2.8E1,1.37E2,1.4E1,6E0,8.7E1,-5.720457E-2,1.3809204E-4,-4.8483387E-2,-1.5313573E-1,4.9043577E-2,1.3632698E-1,1.2835672E-1,2.9016495E-2,-6.845474E-4,-3.821793E-2,-1.9589186E-2,4.3820064E-3],"split_indices":[7,7,4,14,5,1,1,0,0,0,0,0,0,0,0,7,0,0,8,7,11,0,1,0,1,1,3,1,7,0,0,0,0,0,0,0,0,0,0,0,0],"split_type":[0,0,0,0,0,0,0,0,0,0,0,0,0,0,0,0,0,0,0,0,0,0,0,0,0,0,0,0,0,0,0,0,0,0,0,0,0,0,0,0,0],"sum_hessian":[1.44E2,1.21E2,2.3E1,7.6E1,4.5E1,1.4E1,9E0,8E0,6.8E1,1.3E1,3.2E1,1.1E1,3E0,8E0,1E0,7E0,1E0,3.3E1,3.5E1,2.2E1,1E1,3E0,4E0,1E1,2.5E1,1.5E1,7E0,5E0,5E0,3E0,1E0,5E0,2E1,1.4E1,1E0,6E0,1E0,1E0,4E0,3E0,2E0],"tree_param":{"num_deleted":"0","num_feature":"15","num_nodes":"41","size_leaf_vector":"1"}},{"base_weights":[1.8733925E-1,-1.1186886E0,6.818508E0,-1.6918601E0,-1.3493E-1,4.394384E0,9.772844E0,-1.157354E0,-1.9120637E0,-1.9263586E-1,4.16199E-1,1.367836E-1,4.7547886E-1,1.0214857E0,2.8973618E-1,-1.754497E0,-7.7313983E-1,-1.9286535E0,-5.246973E-2,7.7421004E-1,-2.767598E-1,-2.0046337E-1,-5.860122E-2,-3.7109184E-1,-9.587031E-1,-1.4526837E-1,-2.0500617E-1,4.4551373E-1,9.417269E-1,-4.3163046E-1,-1.2601185E-1,-5.2176524E-2,-1.276455E-2,-1.0527577E-1,-3.5697144E-2,2.0721372E-2,1.2951069E-1,1.095284E-1,6.0976412E-2,-6.5031054E-4,-5.153553E-2,-1.6087692E-2,-1.4277776E-3],"categories":[],"categories_nodes":[],"categories_segments":[],"categories_sizes":[],"default_left":[0,0,0,0,0,0,0,0,0,0,0,0,0,0,0,0,0,0,0,0,0,0,0,0,0,0,0,0,0,0,0,0,0,0,0,0,0,0,0,0,0,0,0],"id":26,"left_children":[1,3,5,7,9,11,13,15,17,-1,19,-1,-1,-1,-1,21,23,25,-1,27,29,-1,-1,31,33,-1,-1,35,37,39,41,-1,-1,-1,-1,-1,-1,-1,-1,-1,-1,-1,-1],"loss_changes":[1.2633989E3,6.856293E1,1.289347E2,6.8499756E0,4.6217926E1,9.857971E0,7.9437256E-1,4.379299E0,2.07901E-1,0E0,9.145399E0,0E0,0E0,0E0,0E0,1.4557896E0,9.125242E-1,2.6809692E-2,0E0,9.019413E-1,2.4911314E-1,0E0,0E0,1.9016528E-1,2.4674797E-1,0E0,0E0,1.7562166E0,9.676361E-2,2.1021104E-1,2.8867945E-2,0E0,0E0,0E0,0E0,0E0,0E0,0E0,0E0,0E0,0E0,0E0,0E0],"parents":[2147483647,0,0,1,1,2,2,3,3,4,4,5,5,6,6,7,7,8,8,10,10,15,15,16,16,17,17,19,19,20,20,23,23,24,24,27,27,28,28,29,29,30,30],"right_children":[2,4,6,8,10,12,14,16,18,-1,20,-1,-1,-1,-1,22,24,26,-1,28,30,-1,-1,32,34,-1,-1,36,38,40,42,-1,-1,-1,-1,-1,-1,-1,-1,-1,-1,-1,-1],"split_conditions":[9.2E1,2E0,2.5E0,1.1E2,2E0,1E0,1.64E2,7.2E1,1E1,-1.9263586E-1,1.3E1,1.367836E-1,4.7547886E-1,1.0214857E0,2.8973618E-1,7.2E1,2.6E1,7E0,-5.246973E-2,8.7E1,8.5E1,-2.0046337E-1,-5.860122E-2,7.4E1,1.22E2,-1.4526837E-1,-2.0500617E-1,1.37E2,1.12E2,6E0,6.5E0,-5.2176524E-2,-1.276455E-2,-1.0527577E-1,-3.5697144E-2,2.0721372E-2,1.2951069E-1,1.095284E-1,6.0976412E-2,-6.5031054E-4,-5.153553E-2,-1.6087692E-2,-1.4277776E-3],"split_indices":[7,5,4,10,3,0,1,7,0,0,0,0,0,0,0,1,1,13,0,7,7,0,0,7,1,0,0,1,1,1,12,0,0,0,0,0,0,0,0,0,0,0,0],"split_type":[0,0,0,0,0,0,0,0,0,0,0,0,0,0,0,0,0,0,0,0,0,0,0,0,0,0,0,0,0,0,0,0,0,0,0,0,0,0,0,0,0,0,0],"sum_hessian":[1.44E2,1.21E2,2.3E1,7.6E1,4.5E1,1.4E1,9E0,2.4E1,5.2E1,1E1,3.5E1,2E0,1.2E1,8E0,1E0,8E0,1.6E1,5.1E1,1E0,2.3E1,1.2E1,6E0,2E0,6E0,1E1,1.3E1,3.8E1,9E0,1.4E1,5E0,7E0,3E0,3E0,8E0,2E0,8E0,1E0,8E0,6E0,1E0,4E0,5E0,2E0],"tree_param":{"num_deleted":"0","num_feature":"15","num_nodes":"43","size_leaf_vector":"1"}},{"base_weights":[1.7628932E-1,-1.0134535E0,6.216803E0,-1.533943E0,-1.201674E-1,3.9957626E0,8.9266837E-1,-1.0835704E0,-1.7422985E0,-1.751235E-1,3.8155234E-1,4.447014E0,1.6430683E-1,-1.6078318E0,-7.7820593E-1,-1.7572058E0,-4.984627E-2,7.5265604E-1,-1.8816999E-1,2.7480392E0,5.26799E-1,-1.8328075E0,-5.4694463E-2,-4.0533805E-1,-9.6193403E-1,-1.8759789E-1,-1.3177915E-1,5.5647945E-1,1.0935374E0,-3.9716563E-1,-4.3955613E-2,1.1317648E-1,3.2732353E-1,-2.0989537E-1,-7.782949E-2,-5.5408288E-2,-1.1807251E-2,-1.0310006E-1,-1.0110045E-2,4.295311E-2,1.23035245E-1,1.2832367E-1,4.128596E-2,-6.177902E-4,-4.741276E-2,1.6174635E-2,-1.155994E-2],"categories":[],"categories_nodes":[],"categories_segments":[],"categories_sizes":[],"default_left":[0,0,0,0,0,0,0,0,0,0,0,0,0,0,0,0,0,0,0,0,0,0,0,0,0,0,0,0,0,0,0,0,0,0,0,0,0,0,0,0,0,0,0,0,0,0,0],"id":27,"left_children":[1,3,5,7,9,11,-1,13,15,-1,17,19,-1,21,23,25,-1,27,29,31,-1,33,-1,35,37,-1,-1,39,41,43,45,-1,-1,-1,-1,-1,-1,-1,-1,-1,-1,-1,-1,-1,-1,-1,-1],"loss_changes":[1.0483657E3,5.653911E1,1.0878119E2,5.3375854E0,3.831177E1,8.618088E0,0E0,3.071228E0,6.976318E-2,0E0,7.752967E0,2.2611847E0,0E0,1.1456203E0,9.1171074E-1,1.3737488E-1,0E0,8.6267376E-1,4.3464494E-1,1.3886337E0,0E0,3.309765E-1,0E0,2.7641213E-1,6.0922337E-1,0E0,0E0,8.402786E-1,3.7407207E-1,1.7761797E-1,1.6607043E-1,0E0,0E0,0E0,0E0,0E0,0E0,0E0,0E0,0E0,0E0,0E0,0E0,0E0,0E0,0E0,0E0],"parents":[2147483647,0,0,1,1,2,2,3,3,4,4,5,5,7,7,8,8,10,10,11,11,13,13,14,14,15,15,17,17,18,18,19,19,21,21,23,23,24,24,27,27,28,28,29,29,30,30],"right_children":[2,4,6,8,10,12,-1,14,16,-1,18,20,-1,22,24,26,-1,28,30,32,-1,34,-1,36,38,-1,-1,40,42,44,46,-1,-1,-1,-1,-1,-1,-1,-1,-1,-1,-1,-1,-1,-1,-1,-1],"split_conditions":[9.2E1,2E0,2.5E0,1.12E2,2E0,5E1,8.9266837E-1,7.2E1,1E1,-1.751235E-1,5E0,7.5E0,1.6430683E-1,7.2E1,9.9E1,4E0,-4.984627E-2,8.9E1,8.5E1,9.5E1,5.26799E-1,3E0,-5.4694463E-2,7.4E1,5.6E1,-1.8759789E-1,-1.3177915E-1,1.36E2,1.12E2,6E0,9E0,1.1317648E-1,3.2732353E-1,-2.0989537E-1,-7.782949E-2,-5.5408288E-2,-1.1807251E-2,-1.0310006E-1,-1.0110045E-2,4.295311E-2,1.23035245E-1,1.2832367E-1,4.128596E-2,-6.177902E-4,-4.741276E-2,1.6174635E-2,-1.155994E-2],"split_indices":[7,5,4,10,3,1,0,7,0,0,14,13,0,1,10,3,0,7,7,7,0,2,0,7,8,0,0,1,1,1,0,0,0,0,0,0,0,0,0,0,0,0,0,0,0,0,0],"split_type":[0,0,0,0,0,0,0,0,0,0,0,0,0,0,0,0,0,0,0,0,0,0,0,0,0,0,0,0,0,0,0,0,0,0,0,0,0,0,0,0,0,0,0,0,0,0,0],"sum_hessian":[1.44E2,1.21E2,2.3E1,7.6E1,4.5E1,1.4E1,9E0,2.6E1,5E1,1E1,3.5E1,1.1E1,3E0,8E0,1.8E1,4.9E1,1E0,2.1E1,1.4E1,5E0,6E0,6E0,2E0,7E0,1.1E1,3.6E1,1.3E1,1.5E1,6E0,5E0,9E0,2E0,3E0,4E0,2E0,4E0,3E0,1E1,1E0,1.4E1,1E0,4E0,2E0,1E0,4E0,2E0,7E0],"tree_param":{"num_deleted":"0","num_feature":"15","num_nodes":"47","size_leaf_vector":"1"}},{"base_weights":[1.6727579E-1,-9.1846067E-1,5.6794662E0,-1.3921342E0,-1.056058E-1,3.6716259E0,8.123281E0,-9.6863425E-1,-1.5656316E-1,-1.5920316E-1,3.5151333E-1,4.0829196E0,1.5198384E-1,8.513387E-1,2.30616E-1,-1.4850953E0,-6.382352E-1,6.9264483E-1,-1.7224707E-1,2.5466526E0,4.8164454E-1,-1.6906302E0,-5.1048186E-2,-3.144534E-1,-7.862568E-1,5.1120543E-1,1.0084141E0,-3.6545405E-1,-3.9098166E-2,1.0563151E-1,3.0277425E-1,-1.9310372E-1,-7.2640866E-2,-3.713948E-2,1.3597489E-3,-8.728338E-2,-2.6444022E-2,3.8944118E-2,1.1688347E-1,1.1805786E-1,3.853353E-2,-5.868912E-4,-4.361973E-2,-9.073279E-3,2.128067E-2],"categories":[],"categories_nodes":[],"categories_segments":[],"categories_sizes":[],"default_left":[0,0,0,0,0,0,0,0,0,0,0,0,0,0,0,0,0,0,0,0,0,0,0,0,0,0,0,0,0,0,0,0,0,0,0,0,0,0,0,0,0,0,0,0,0],"id":28,"left_children":[1,3,5,7,9,11,13,15,-1,-1,17,19,-1,-1,-1,21,23,25,27,29,-1,31,-1,33,35,37,39,41,43,-1,-1,-1,-1,-1,-1,-1,-1,-1,-1,-1,-1,-1,-1,-1,-1],"loss_changes":[8.730104E2,4.6826378E1,8.7937256E1,4.1411285E0,3.181541E1,7.06987E0,3.0596924E0,3.3181152E0,0E0,0E0,6.551468E0,1.256897E0,0E0,0E0,0E0,9.398174E-1,5.67513E-1,7.4493885E-1,3.7159085E-1,1.1036682E0,0E0,2.1991539E-1,0E0,1.358077E-1,2.6613808E-1,8.2601976E-1,2.959857E-1,1.500693E-1,1.4937866E-1,0E0,0E0,0E0,0E0,0E0,0E0,0E0,0E0,0E0,0E0,0E0,0E0,0E0,0E0,0E0,0E0],"parents":[2147483647,0,0,1,1,2,2,3,3,4,4,5,5,6,6,7,7,10,10,11,11,15,15,16,16,17,17,18,18,19,19,21,21,23,23,24,24,25,25,26,26,27,27,28,28],"right_children":[2,4,6,8,10,12,14,16,-1,-1,18,20,-1,-1,-1,22,24,26,28,30,-1,32,-1,34,36,38,40,42,44,-1,-1,-1,-1,-1,-1,-1,-1,-1,-1,-1,-1,-1,-1,-1,-1],"split_conditions":[9.2E1,2E0,2.5E0,1.1E2,2E0,5E1,1.64E2,7.2E1,-1.5656316E-1,-1.5920316E-1,5E0,7.5E0,1.5198384E-1,8.513387E-1,2.30616E-1,7.2E1,2.6E1,8.9E1,8.5E1,9.5E1,4.8164454E-1,3E0,-5.1048186E-2,2.5E1,1.22E2,1.36E2,1.12E2,6E0,8.9E1,1.0563151E-1,3.0277425E-1,-1.9310372E-1,-7.2640866E-2,-3.713948E-2,1.3597489E-3,-8.728338E-2,-2.6444022E-2,3.8944118E-2,1.1688347E-1,1.1805786E-1,3.853353E-2,-5.868912E-4,-4.361973E-2,-9.073279E-3,2.128067E-2],"split_indices":[7,5,4,10,3,1,1,7,0,0,14,13,0,0,0,1,1,7,7,7,0,2,0,1,1,1,1,1,7,0,0,0,0,0,0,0,0,0,0,0,0,0,0,0,0],"split_type":[0,0,0,0,0,0,0,0,0,0,0,0,0,0,0,0,0,0,0,0,0,0,0,0,0,0,0,0,0,0,0,0,0,0,0,0,0,0,0,0,0,0,0,0,0],"sum_hessian":[1.44E2,1.21E2,2.3E1,7.6E1,4.5E1,1.4E1,9E0,2.4E1,5.2E1,1E1,3.5E1,1.1E1,3E0,8E0,1E0,8E0,1.6E1,2.1E1,1.4E1,5E0,6E0,6E0,2E0,6E0,1E1,1.5E1,6E0,5E0,9E0,2E0,3E0,4E0,2E0,5E0,1E0,8E0,2E0,1.4E1,1E0,4E0,2E0,1E0,4E0,8E0,1E0],"tree_param":{"num_deleted":"0","num_feature":"15","num_nodes":"45","size_leaf_vector":"1"}},{"base_weights":[1.6173716E-1,-8.307264E-1,5.2000213E0,-1.2632674E0,-8.863107E-2,3.3739328E0,7.4191513E0,-8.959718E-1,-1.5183761E0,-1.1595696E-1,3.6839232E-1,3.7487996E0,1.4058495E-1,7.756646E-1,2.1908493E-1,-1.0374608E0,-3.0644983E-1,-1.9743682E-1,-1.3261912E0,6.4641315E-1,-1.0905618E-1,2.3600566E0,4.4036078E-1,-6.411728E-1,-1.3596444E-1,2.9712677E-2,-5.1408987E-2,-4.0325433E-2,-1.4358076E0,2.596321E-1,7.5105524E-1,1.4689381E-1,-1.6894652E-1,9.8589584E-2,2.800663E-1,-8.72662E-2,-1.8707689E-2,-1.110878E-2,2.2605706E-2,-1.4580591E-1,-3.9525796E-2,5.1667213E-2,1.0488967E-2,8.0411814E-2,-2.2443773E-3,2.021656E-2,1.8175126E-3,-2.3754312E-2,-7.219219E-3],"categories":[],"categories_nodes":[],"categories_segments":[],"categories_sizes":[],"default_left":[0,0,0,0,0,0,0,0,0,0,0,0,0,0,0,0,0,0,0,0,0,0,0,0,0,0,0,0,0,0,0,0,0,0,0,0,0,0,0,0,0,0,0,0,0,0,0,0,0],"id":29,"left_children":[1,3,5,7,9,11,13,15,17,-1,19,21,-1,-1,-1,23,25,-1,27,29,31,33,-1,35,-1,37,-1,-1,39,41,43,45,47,-1,-1,-1,-1,-1,-1,-1,-1,-1,-1,-1,-1,-1,-1,-1,-1],"loss_changes":[7.2936523E2,3.9048393E1,7.222412E1,5.8545074E0,2.29416E1,5.79628E0,6.516113E-1,2.5180416E0,1.2375412E0,0E0,4.4509363E0,5.1956177E-1,0E0,0E0,0E0,2.5755234E0,5.7368124E-1,0E0,2.860756E0,6.5494823E-1,2.2409335E-1,8.71624E-1,0E0,1.3084016E0,0E0,1.3569371E-1,0E0,0E0,1.1830139E-1,1.8445644E-1,6.747513E-1,1.7669156E-2,5.5858433E-2,0E0,0E0,0E0,0E0,0E0,0E0,0E0,0E0,0E0,0E0,0E0,0E0,0E0,0E0,0E0,0E0],"parents":[2147483647,0,0,1,1,2,2,3,3,4,4,5,5,6,6,7,7,8,8,10,10,11,11,15,15,16,16,18,18,19,19,20,20,21,21,23,23,25,25,28,28,29,29,30,30,31,31,32,32],"right_children":[2,4,6,8,10,12,14,16,18,-1,20,22,-1,-1,-1,24,26,-1,28,30,32,34,-1,36,-1,38,-1,-1,40,42,44,46,48,-1,-1,-1,-1,-1,-1,-1,-1,-1,-1,-1,-1,-1,-1,-1,-1],"split_conditions":[9.2E1,8.4E1,2.5E0,8E0,2E0,5E1,1.64E2,7.9E1,2.9E1,-1.1595696E-1,5E0,7.5E0,1.4058495E-1,7.756646E-1,2.1908493E-1,9.9E1,1.12E2,-1.9743682E-1,1.07E2,9.8E1,9E0,9.5E1,4.4036078E-1,7.3E1,-1.3596444E-1,6E0,-5.1408987E-2,-4.0325433E-2,1E1,1.3E1,3E0,1E2,4E0,9.8589584E-2,2.800663E-1,-8.72662E-2,-1.8707689E-2,-1.110878E-2,2.2605706E-2,-1.4580591E-1,-3.9525796E-2,5.1667213E-2,1.0488967E-2,8.0411814E-2,-2.2443773E-3,2.021656E-2,1.8175126E-3,-2.3754312E-2,-7.219219E-3],"split_indices":[7,7,4,14,5,1,1,7,9,0,14,13,0,0,0,10,10,0,10,10,0,7,0,7,0,0,0,0,0,1,2,1,11,0,0,0,0,0,0,0,0,0,0,0,0,0,0,0,0],"split_type":[0,0,0,0,0,0,0,0,0,0,0,0,0,0,0,0,0,0,0,0,0,0,0,0,0,0,0,0,0,0,0,0,0,0,0,0,0,0,0,0,0,0,0,0,0,0,0,0,0],"sum_hessian":[1.44E2,1.21E2,2.3E1,7.6E1,4.5E1,1.4E1,9E0,3.3E1,4.3E1,1.3E1,3.2E1,1.1E1,3E0,8E0,1E0,2.6E1,7E0,1E1,3.3E1,2E1,1.2E1,5E0,6E0,1.3E1,1.3E1,3E0,4E0,4E0,2.9E1,5E0,1.5E1,2E0,1E1,2E0,3E0,8E0,5E0,2E0,1E0,2.8E1,1E0,1E0,4E0,1.4E1,1E0,1E0,1E0,5E0,5E0],"tree_param":{"num_deleted":"0","num_feature":"15","num_nodes":"49","size_leaf_vector":"1"}},{"base_weights":[1.5428641E-1,-7.5330544E-1,4.76145E0,-1.1460959E0,-7.943227E-2,3.1005127E0,6.776711E-1,-8.146644E-1,-1.3761543E0,-1.05189554E-1,3.3553493E-1,9.7206116E-2,3.3531928E-1,-9.426755E-1,-2.8079408E-1,-1.7948802E-1,-1.2002091E0,5.8845484E-1,-9.883837E-2,-5.846252E-1,-1.23339176E-1,2.9615402E-2,-4.7296286E-2,-3.7099417E-2,-1.2984046E0,4.2202708E-1,8.6102074E-1,1.3954861E-1,-1.548677E-1,-7.950919E-2,-1.714875E-2,-1.036822E-2,2.147541E-2,-1.317281E-1,-3.7549496E-2,2.992878E-2,1.0701885E-1,1.0218048E-1,3.0604044E-2,1.9205665E-2,1.7266273E-3,-3.0859471E-3,-1.9751335E-2],"categories":[],"categories_nodes":[],"categories_segments":[],"categories_sizes":[],"default_left":[0,0,0,0,0,0,0,0,0,0,0,0,0,0,0,0,0,0,0,0,0,0,0,0,0,0,0,0,0,0,0,0,0,0,0,0,0,0,0,0,0,0,0],"id":30,"left_children":[1,3,5,7,9,11,-1,13,15,-1,17,-1,-1,19,21,-1,23,25,27,29,-1,31,-1,-1,33,35,37,39,41,-1,-1,-1,-1,-1,-1,-1,-1,-1,-1,-1,-1,-1,-1],"loss_changes":[6.098934E2,3.2201256E1,5.932202E1,4.750038E0,1.8915804E1,4.8077393E0,0E0,2.0589066E0,1.0873795E0,0E0,3.6835964E0,0E0,0E0,2.089388E0,4.9121517E-1,0E0,2.2867508E0,5.892396E-1,1.9524819E-1,1.0809765E0,0E0,1.2098037E-1,0E0,0E0,2.8007507E-2,8.730285E-1,3.1191015E-1,1.5946317E-2,5.2077353E-2,0E0,0E0,0E0,0E0,0E0,0E0,0E0,0E0,0E0,0E0,0E0,0E0,0E0,0E0],"parents":[2147483647,0,0,1,1,2,2,3,3,4,4,5,5,7,7,8,8,10,10,13,13,14,14,16,16,17,17,18,18,19,19,21,21,24,24,25,25,26,26,27,27,28,28],"right_children":[2,4,6,8,10,12,-1,14,16,-1,18,-1,-1,20,22,-1,24,26,28,30,-1,32,-1,-1,34,36,38,40,42,-1,-1,-1,-1,-1,-1,-1,-1,-1,-1,-1,-1,-1,-1],"split_conditions":[9.2E1,8.4E1,2.5E0,8E0,2E0,1E0,6.776711E-1,7.9E1,2.9E1,-1.05189554E-1,5E0,9.7206116E-2,3.3531928E-1,9.9E1,1.12E2,-1.7948802E-1,1.07E2,8.9E1,9E0,7.3E1,-1.23339176E-1,6E0,-4.7296286E-2,-3.7099417E-2,1E1,1.36E2,1.12E2,1E2,7.7E1,-7.950919E-2,-1.714875E-2,-1.036822E-2,2.147541E-2,-1.317281E-1,-3.7549496E-2,2.992878E-2,1.0701885E-1,1.0218048E-1,3.0604044E-2,1.9205665E-2,1.7266273E-3,-3.0859471E-3,-1.9751335E-2],"split_indices":[7,7,4,14,5,0,0,7,9,0,14,0,0,10,10,0,10,7,0,7,0,0,0,0,0,1,1,1,1,0,0,0,0,0,0,0,0,0,0,0,0,0,0],"split_type":[0,0,0,0,0,0,0,0,0,0,0,0,0,0,0,0,0,0,0,0,0,0,0,0,0,0,0,0,0,0,0,0,0,0,0,0,0,0,0,0,0,0,0],"sum_hessian":[1.44E2,1.21E2,2.3E1,7.6E1,4.5E1,1.4E1,9E0,3.3E1,4.3E1,1.3E1,3.2E1,2E0,1.2E1,2.6E1,7E0,1E1,3.3E1,2E1,1.2E1,1.3E1,1.3E1,3E0,4E0,4E0,2.9E1,1.4E1,6E0,2E0,1E1,8E0,5E0,2E0,1E0,2.8E1,1E0,1.3E1,1E0,4E0,2E0,1E0,1E0,3E0,7E0],"tree_param":{"num_deleted":"0","num_feature":"15","num_nodes":"43","size_leaf_vector":"1"}},{"base_weights":[1.432077E-1,-6.819047E-1,4.331562E0,-1.0408468E0,-6.6242814E-2,2.8192964E0,6.1668043E0,-7.4499357E-1,-1.1607616E0,-1.1769267E-1,2.7497292E-1,3.3970523E0,1.6737105E0,6.4647895E-1,1.7424698E-1,-1.1768403E0,-4.7254574E-1,-1.20691076E-1,-6.850804E-2,5.0821894E-1,-1.7678687E-1,3.5779172E-1,9.750672E-2,1.0439682E-1,2.726082E-1,-1.7766069E-1,-7.516774E-1,-2.3868234E-1,-5.784092E-1,3.199545E-1,6.698205E-1,-2.844E-1,-7.397866E-2,-8.1908815E-2,-1.736064E-2,-3.535986E-2,-6.4095496E-3,-6.356635E-2,-2.1384334E-2,1.7717076E-2,1.0166798E-1,6.9754E-2,1.8245315E-2,7.844925E-4,-3.4441795E-2,-1.105992E-2,2.3921968E-3],"categories":[],"categories_nodes":[],"categories_segments":[],"categories_sizes":[],"default_left":[0,0,0,0,0,0,0,0,0,0,0,0,0,0,0,0,0,0,0,0,0,0,0,0,0,0,0,0,0,0,0,0,0,0,0,0,0,0,0,0,0,0,0,0,0,0,0],"id":31,"left_children":[1,3,5,7,9,11,13,15,17,-1,19,21,23,-1,-1,25,27,-1,-1,29,31,-1,-1,-1,-1,-1,33,35,37,39,41,43,45,-1,-1,-1,-1,-1,-1,-1,-1,-1,-1,-1,-1,-1,-1],"loss_changes":[5.0405386E2,2.689146E1,4.922293E1,1.8669815E0,1.7756832E1,4.2423553E0,1.9191284E0,2.3852825E0,3.366394E-1,0E0,3.8832085E0,4.5375824E-1,1.7931156E0,0E0,0E0,9.5955086E-1,2.828231E-1,0E0,0E0,5.158596E-1,1.22786105E-1,0E0,0E0,0E0,0E0,0E0,1.3057852E-1,1.1777598E-1,9.367013E-2,1.1131277E0,3.4846306E-2,1.079416E-1,3.1327143E-2,0E0,0E0,0E0,0E0,0E0,0E0,0E0,0E0,0E0,0E0,0E0,0E0,0E0,0E0],"parents":[2147483647,0,0,1,1,2,2,3,3,4,4,5,5,6,6,7,7,8,8,10,10,11,11,12,12,15,15,16,16,19,19,20,20,26,26,27,27,28,28,29,29,30,30,31,31,32,32],"right_children":[2,4,6,8,10,12,14,16,18,-1,20,22,24,-1,-1,26,28,-1,-1,30,32,-1,-1,-1,-1,-1,34,36,38,40,42,44,46,-1,-1,-1,-1,-1,-1,-1,-1,-1,-1,-1,-1,-1,-1],"split_conditions":[9.2E1,2E0,2.5E0,1.1E2,2E0,4E0,1.64E2,7.2E1,8.9E1,-1.1769267E-1,1.3E1,5E1,9.6E1,6.4647895E-1,1.7424698E-1,6E0,2.6E1,-1.20691076E-1,-6.850804E-2,8.8E1,8.5E1,3.5779172E-1,9.750672E-2,1.0439682E-1,2.726082E-1,-1.7766069E-1,1.14E2,7.4E1,1.22E2,1.37E2,1.4E1,6E0,6.5E0,-8.1908815E-2,-1.736064E-2,-3.535986E-2,-6.4095496E-3,-6.356635E-2,-2.1384334E-2,1.7717076E-2,1.0166798E-1,6.9754E-2,1.8245315E-2,7.844925E-4,-3.4441795E-2,-1.105992E-2,2.3921968E-3],"split_indices":[7,5,4,10,3,11,1,7,7,0,0,1,7,0,0,0,1,0,0,7,7,0,0,0,0,0,1,7,1,1,3,1,12,0,0,0,0,0,0,0,0,0,0,0,0,0,0],"split_type":[0,0,0,0,0,0,0,0,0,0,0,0,0,0,0,0,0,0,0,0,0,0,0,0,0,0,0,0,0,0,0,0,0,0,0,0,0,0,0,0,0,0,0,0,0,0,0],"sum_hessian":[1.44E2,1.21E2,2.3E1,7.6E1,4.5E1,1.4E1,9E0,2.4E1,5.2E1,1E1,3.5E1,8E0,6E0,8E0,1E0,8E0,1.6E1,4.6E1,6E0,2.3E1,1.2E1,7E0,1E0,5E0,1E0,2E0,6E0,6E0,1E1,1.2E1,1.1E1,5E0,7E0,5E0,1E0,3E0,3E0,8E0,2E0,1.1E1,1E0,1E1,1E0,1E0,4E0,5E0,2E0],"tree_param":{"num_deleted":"0","num_feature":"15","num_nodes":"47","size_leaf_vector":"1"}},{"base_weights":[1.3652508E-1,-6.181854E-1,3.9672813E0,-9.444614E-1,-5.858885E-2,2.5928547E0,5.632193E0,-1.1961535E-1,-8.1510824E-1,-1.0699337E0,2.5206062E-1,2.7240238E0,3.782444E-2,5.890137E-1,1.6553497E-1,-1.1026007E0,-7.067151E-1,-1.11572646E-1,-3.0600263E-2,4.66038E-1,-1.6236378E-1,3.933838E-1,2.1945684E0,-6.906907E-1,-1.3569963E-1,-4.0277958E-1,-8.972801E-2,3.352689E-1,6.856675E-1,-2.6156998E-1,-6.766367E-2,2.6566691E0,1.0162933E-1,-7.508305E-2,-1.6492605E-2,-2.117422E-2,-5.344353E-2,2.3549259E-2,9.6584514E-2,7.946568E-2,2.391332E-2,7.452965E-4,-3.1686515E-2,-1.0138194E-2,2.2327423E-3,3.322756E-1,1.5924661E-1],"categories":[],"categories_nodes":[],"categories_segments":[],"categories_sizes":[],"default_left":[0,0,0,0,0,0,0,0,0,0,0,0,0,0,0,0,0,0,0,0,0,0,0,0,0,0,0,0,0,0,0,0,0,0,0,0,0,0,0,0,0,0,0,0,0,0,0],"id":32,"left_children":[1,3,5,7,9,11,13,-1,15,17,19,21,-1,-1,-1,23,25,-1,-1,27,29,-1,31,33,-1,35,-1,37,39,41,43,45,-1,-1,-1,-1,-1,-1,-1,-1,-1,-1,-1,-1,-1,-1,-1],"loss_changes":[4.216637E2,2.221978E1,4.0315765E1,1.5319138E0,1.472168E1,3.3269806E0,5.07782E-1,0E0,9.0353394E-1,4.339218E-2,3.2680557E0,3.3452606E-1,0E0,0E0,0E0,4.2498207E-1,2.0712128E0,0E0,0E0,4.5941496E-1,1.044341E-1,0E0,3.833828E0,9.750414E-2,0E0,3.3955812E-1,0E0,8.4213257E-1,1.9931078E-1,9.161559E-2,2.6538346E-2,3.794403E-1,0E0,0E0,0E0,0E0,0E0,0E0,0E0,0E0,0E0,0E0,0E0,0E0,0E0,0E0,0E0],"parents":[2147483647,0,0,1,1,2,2,3,3,4,4,5,5,6,6,8,8,9,9,10,10,11,11,15,15,16,16,19,19,20,20,22,22,23,23,25,25,27,27,28,28,29,29,30,30,31,31],"right_children":[2,4,6,8,10,12,14,-1,16,18,20,22,-1,-1,-1,24,26,-1,-1,28,30,-1,32,34,-1,36,-1,38,40,42,44,46,-1,-1,-1,-1,-1,-1,-1,-1,-1,-1,-1,-1,-1,-1,-1],"split_conditions":[9.2E1,2E0,2.5E0,4E0,2E0,1.59E2,1.64E2,-1.1961535E-1,4.7E1,7.4E1,1.3E1,3.3E1,3.782444E-2,5.890137E-1,1.6553497E-1,6E0,7E0,-1.11572646E-1,-3.0600263E-2,8.9E1,8.5E1,3.933838E-1,8E0,1.14E2,-1.3569963E-1,2.8E1,-8.972801E-2,1.37E2,1.12E2,6E0,6.5E0,3.67E2,1.0162933E-1,-7.508305E-2,-1.6492605E-2,-2.117422E-2,-5.344353E-2,2.3549259E-2,9.6584514E-2,7.946568E-2,2.391332E-2,7.452965E-4,-3.1686515E-2,-1.0138194E-2,2.2327423E-3,3.322756E-1,1.5924661E-1],"split_indices":[7,5,4,0,3,1,1,0,8,7,0,1,0,0,0,14,0,0,0,7,7,0,14,1,0,1,0,1,1,1,12,10,0,0,0,0,0,0,0,0,0,0,0,0,0,0,0],"split_type":[0,0,0,0,0,0,0,0,0,0,0,0,0,0,0,0,0,0,0,0,0,0,0,0,0,0,0,0,0,0,0,0,0,0,0,0,0,0,0,0,0,0,0,0,0,0,0],"sum_hessian":[1.44E2,1.21E2,2.3E1,7.6E1,4.5E1,1.4E1,9E0,2.3E1,5.3E1,1E1,3.5E1,1.3E1,1E0,8E0,1E0,1.2E1,4.1E1,9E0,1E0,2.3E1,1.2E1,2E0,1.1E1,6E0,6E0,1.7E1,2.4E1,1.6E1,7E0,5E0,7E0,7E0,4E0,5E0,1E0,8E0,9E0,1.5E1,1E0,5E0,2E0,1E0,4E0,5E0,2E0,3E0,4E0],"tree_param":{"num_deleted":"0","num_feature":"15","num_nodes":"47","size_leaf_vector":"1"}},{"base_weights":[1.3190788E-1,-5.6020886E-1,3.644672E0,-8.5718673E-1,-5.0915305E-2,4.5127134E0,1.6965234E0,-6.07459E-1,-1.0306766E0,-7.811947E-2,2.604431E-1,5.2154374E-1,2.4722672E0,1.9587342E-1,5.191905E-2,-7.16819E-1,-1.624369E-1,-1.4003041E0,-8.8077724E-1,4.60212E-1,-8.229461E-2,3.1871414E-1,6.950124E-2,-4.505024E-1,-9.319342E-2,7.3287964E-2,-3.1852942E-2,-1.6262674E-1,-8.038947E-2,-2.5614262E-2,-9.555238E-1,3.260971E-1,6.8185645E-1,-1.5680385E-1,3.0766806E-2,-6.1774086E-2,-1.24560995E-2,1.6486073E-2,-1.0071516E-2,-9.711274E-2,-2.5151014E-2,4.6549086E-2,-4.5788577E-3,8.206848E-2,2.2319032E-2,7.0800784E-4,-1.8122729E-2,-1.05975475E-2,1.2563181E-2],"categories":[],"categories_nodes":[],"categories_segments":[],"categories_sizes":[],"default_left":[0,0,0,0,0,0,0,0,0,0,0,0,0,0,0,0,0,0,0,0,0,0,0,0,0,0,0,0,0,0,0,0,0,0,0,0,0,0,0,0,0,0,0,0,0,0,0,0,0],"id":33,"left_children":[1,3,5,7,9,11,13,15,17,-1,19,-1,21,-1,-1,23,25,27,29,31,33,-1,-1,35,-1,37,-1,-1,-1,-1,39,41,43,45,47,-1,-1,-1,-1,-1,-1,-1,-1,-1,-1,-1,-1,-1,-1],"loss_changes":[3.5457202E2,1.8408718E1,3.292981E1,2.7099533E0,1.0662872E1,1.0048004E1,1.7614269E0,1.5382595E0,1.2045479E0,0E0,2.2973282E0,0E0,5.407978E0,0E0,0E0,1.1269579E0,3.177035E-1,1.7508507E-1,1.3426838E0,4.0189028E-1,1.1433791E-1,0E0,0E0,6.86193E-1,0E0,8.033977E-2,0E0,0E0,0E0,0E0,8.530617E-2,7.988924E-1,2.6256227E-1,3.3303946E-2,9.114623E-2,0E0,0E0,0E0,0E0,0E0,0E0,0E0,0E0,0E0,0E0,0E0,0E0,0E0,0E0],"parents":[2147483647,0,0,1,1,2,2,3,3,4,4,5,5,6,6,7,7,8,8,10,10,12,12,15,15,16,16,17,17,18,18,19,19,20,20,23,23,25,25,30,30,31,31,32,32,33,33,34,34],"right_children":[2,4,6,8,10,12,14,16,18,-1,20,-1,22,-1,-1,24,26,28,30,32,34,-1,-1,36,-1,38,-1,-1,-1,-1,40,42,44,46,48,-1,-1,-1,-1,-1,-1,-1,-1,-1,-1,-1,-1,-1,-1],"split_conditions":[9.2E1,8.4E1,3.66E2,8E0,2E0,8E0,1E1,7.9E1,2.9E1,-7.811947E-2,5E0,5.2154374E-1,6E0,1.9587342E-1,5.191905E-2,9.9E1,1.12E2,6E0,1.07E2,8.9E1,2.44E2,3.1871414E-1,6.950124E-2,7.3E1,-9.319342E-2,2.8E1,-3.1852942E-2,-1.6262674E-1,-8.038947E-2,-2.5614262E-2,1E1,3.62E2,1.12E2,6E0,8E0,-6.1774086E-2,-1.24560995E-2,1.6486073E-2,-1.0071516E-2,-9.711274E-2,-2.5151014E-2,4.6549086E-2,-4.5788577E-3,8.206848E-2,2.2319032E-2,7.0800784E-4,-1.8122729E-2,-1.05975475E-2,1.2563181E-2],"split_indices":[7,7,10,14,5,14,11,7,9,0,14,0,11,0,0,10,10,0,10,7,10,0,0,7,0,1,0,0,0,0,0,10,1,1,11,0,0,0,0,0,0,0,0,0,0,0,0,0,0],"split_type":[0,0,0,0,0,0,0,0,0,0,0,0,0,0,0,0,0,0,0,0,0,0,0,0,0,0,0,0,0,0,0,0,0,0,0,0,0,0,0,0,0,0,0,0,0,0,0,0,0],"sum_hessian":[1.44E2,1.21E2,2.3E1,7.6E1,4.5E1,1.5E1,8E0,3.3E1,4.3E1,1.3E1,3.2E1,1E1,5E0,6E0,2E0,2.6E1,7E0,1E1,3.3E1,2E1,1.2E1,3E0,2E0,1.3E1,1.3E1,3E0,4E0,6E0,4E0,4E0,2.9E1,1.4E1,6E0,7E0,5E0,8E0,5E0,2E0,1E0,2.8E1,1E0,1E1,4E0,4E0,2E0,1E0,6E0,2E0,3E0],"tree_param":{"num_deleted":"0","num_feature":"15","num_nodes":"49","size_leaf_vector":"1"}},{"base_weights":[1.2303791E-1,-5.085404E-1,3.3284342E0,-7.802553E-1,-4.265801E-2,4.1183004E0,1.5544019E0,-9.868585E-2,-6.7398244E-1,-8.7566906E-1,2.130581E-1,4.7413054E-1,2.2897415E0,1.7908402E-1,4.8457846E-2,-9.305728E-1,-5.7851446E-1,-1.0340154E-1,-4.788504E-2,4.179372E-1,-1.01635106E-1,3.766838E-1,1.2409546E-1,-1.4592825E-1,-7.017817E-2,-3.3027786E-1,-7.3410416E-1,3.4035224E-1,7.9585776E-2,-2.240289E-1,-1.8035317E-2,-1.7410511E-2,-4.3780558E-2,-2.064526E-2,-7.474875E-2,4.5662474E-2,5.9185573E-3,6.726265E-4,-2.7152522E-2,1.0731189E-2,-6.2786103E-3],"categories":[],"categories_nodes":[],"categories_segments":[],"categories_sizes":[],"default_left":[0,0,0,0,0,0,0,0,0,0,0,0,0,0,0,0,0,0,0,0,0,0,0,0,0,0,0,0,0,0,0,0,0,0,0,0,0,0,0,0,0],"id":34,"left_children":[1,3,5,7,9,11,13,-1,15,17,19,-1,21,-1,-1,23,25,-1,-1,27,29,-1,-1,-1,-1,31,33,35,-1,37,39,-1,-1,-1,-1,-1,-1,-1,-1,-1,-1],"loss_changes":[2.9523914E2,1.5410353E1,2.7228455E1,1.0255127E0,9.985229E0,7.37088E0,1.4087219E0,0E0,7.844429E-1,1.9604301E-1,2.3635435E0,0E0,4.6204834E0,0E0,0E0,5.4843616E-1,1.3797102E0,0E0,0E0,3.7418866E-1,1.4944102E-1,0E0,0E0,0E0,0E0,2.26048E-1,2.2223473E-2,6.2681365E-1,0E0,6.758639E-2,6.283155E-2,0E0,0E0,0E0,0E0,0E0,0E0,0E0,0E0,0E0,0E0],"parents":[2147483647,0,0,1,1,2,2,3,3,4,4,5,5,6,6,8,8,9,9,10,10,12,12,15,15,16,16,19,19,20,20,25,25,26,26,27,27,29,29,30,30],"right_children":[2,4,6,8,10,12,14,-1,16,18,20,-1,22,-1,-1,24,26,-1,-1,28,30,-1,-1,-1,-1,32,34,36,-1,38,40,-1,-1,-1,-1,-1,-1,-1,-1,-1,-1],"split_conditions":[9.2E1,2E0,3.66E2,4E0,2E0,8E0,1E1,-9.868585E-2,4.7E1,7.2E1,5E0,4.7413054E-1,3.3E1,1.7908402E-1,4.8457846E-2,6E0,7E0,-1.0340154E-1,-4.788504E-2,9E1,8.5E1,3.766838E-1,1.2409546E-1,-1.4592825E-1,-7.017817E-2,2.8E1,1E0,3.62E2,7.9585776E-2,6E0,8E0,-1.7410511E-2,-4.3780558E-2,-2.064526E-2,-7.474875E-2,4.5662474E-2,5.9185573E-3,6.726265E-4,-2.7152522E-2,1.0731189E-2,-6.2786103E-3],"split_indices":[7,5,10,0,3,14,11,0,8,7,14,0,1,0,0,0,0,0,0,7,7,0,0,0,0,1,1,10,0,1,14,0,0,0,0,0,0,0,0,0,0],"split_type":[0,0,0,0,0,0,0,0,0,0,0,0,0,0,0,0,0,0,0,0,0,0,0,0,0,0,0,0,0,0,0,0,0,0,0,0,0,0,0,0,0],"sum_hessian":[1.44E2,1.21E2,2.3E1,7.6E1,4.5E1,1.5E1,8E0,2.3E1,5.3E1,1E1,3.5E1,1E1,5E0,6E0,2E0,1.2E1,4.1E1,6E0,4E0,2.1E1,1.4E1,1E0,4E0,2E0,1E1,1.7E1,2.4E1,1.9E1,2E0,5E0,9E0,8E0,9E0,1E0,2.3E1,1.3E1,6E0,1E0,4E0,2E0,7E0],"tree_param":{"num_deleted":"0","num_feature":"15","num_nodes":"41","size_leaf_vector":"1"}},{"base_weights":[1.15485005E-1,-4.618956E-1,3.0456913E0,-7.0840585E-1,-3.92177E-2,2.0040407E0,4.303598E0,-2.1227445E-1,-7.628519E-1,-4.9930382E-1,3.0303934E-1,3.3147916E-1,1.5474029E0,1.1458512E-1,4.527142E0,-3.3236742E-2,2.0933628E-2,-9.807917E-1,-6.538808E-1,-1.4036123E-1,-6.431106E-1,3.975147E-1,-2.3678098E-2,7.55434E-2,1.9479542E0,4.7552395E-1,1.3511811E-1,-1.7001247E-2,1.4125316E-2,-5.200982E-1,-1.0922523E0,-3.12866E-1,-7.560243E-1,-2.0737877E-1,1.812172E-2,-7.525631E-2,-4.2614896E-2,1.0785548E-1,4.8129225E-1,-9.923077E-3,5.7794094E-2,5.26268E-2,2.0758711E-1,-5.8783647E-2,-9.070349E-3,-1.4827214E-1,-8.385359E-2,-2.0806312E-3,-3.9840326E-2,-8.9745015E-2,-5.3684976E-2,6.389618E-4,-2.6241828E-2,-1.1024475E-4,2.8285028E-3,4.091358E-2,-3.422775E-3,5.2711513E-2,-1.0302544E-2,1.0785389E-2,5.1561993E-4],"categories":[],"categories_nodes":[],"categories_segments":[],"categories_sizes":[],"default_left":[0,0,0,0,0,0,0,0,0,0,0,0,0,0,0,0,0,0,0,0,0,0,0,0,0,0,0,0,0,0,0,0,0,0,0,0,0,0,0,0,0,0,0,0,0,0,0,0,0,0,0,0,0,0,0,0,0,0,0,0,0],"id":35,"left_children":[1,3,5,7,9,11,13,15,17,19,21,-1,23,-1,25,-1,27,29,31,33,35,37,39,-1,41,-1,-1,-1,-1,43,45,47,49,51,53,-1,-1,55,57,-1,59,-1,-1,-1,-1,-1,-1,-1,-1,-1,-1,-1,-1,-1,-1,-1,-1,-1,-1,-1,-1],"loss_changes":[2.4672421E2,1.2683941E1,2.2822601E1,1.9180222E0,7.394823E0,3.8487625E0,1.871521E0,2.590175E-1,9.973717E-1,9.420996E-1,8.428147E-1,0E0,2.652359E0,0E0,9.466553E-2,0E0,1.15912974E-1,5.102539E-1,1.4702568E0,7.8106E-2,1.1754036E-2,4.5769572E-1,4.882304E-2,0E0,3.6239815E-1,0E0,0E0,0E0,0E0,1.2119973E-1,3.417778E-1,3.1647646E-1,6.6509247E-1,6.0505286E-2,6.17326E-4,0E0,0E0,2.7084512E-1,4.8270822E-1,0E0,9.984052E-3,0E0,0E0,0E0,0E0,0E0,0E0,0E0,0E0,0E0,0E0,0E0,0E0,0E0,0E0,0E0,0E0,0E0,0E0,0E0,0E0],"parents":[2147483647,0,0,1,1,2,2,3,3,4,4,5,5,6,6,7,7,8,8,9,9,10,10,12,12,14,14,16,16,17,17,18,18,19,19,20,20,21,21,22,22,24,24,29,29,30,30,31,31,32,32,33,33,34,34,37,37,38,38,40,40],"right_children":[2,4,6,8,10,12,14,16,18,20,22,-1,24,-1,26,-1,28,30,32,34,36,38,40,-1,42,-1,-1,-1,-1,44,46,48,50,52,54,-1,-1,56,58,-1,60,-1,-1,-1,-1,-1,-1,-1,-1,-1,-1,-1,-1,-1,-1,-1,-1,-1,-1,-1,-1],"split_conditions":[9.2E1,8.4E1,2.5E0,5E0,4E0,3.3E1,5.4E1,7.6E1,7.3E1,4E0,8E0,3.3147916E-1,9.5E1,1.1458512E-1,1.64E2,-3.3236742E-2,4E0,9.4E1,1.12E2,1.02E2,8.9E1,9.8E1,2.44E2,7.55434E-2,3.64E2,4.7552395E-1,1.3511811E-1,-1.7001247E-2,1.4125316E-2,1.14E2,1.12E2,2.8E1,8E0,6E0,1E0,-7.525631E-2,-4.2614896E-2,1.3E1,3E0,-9.923077E-3,7.7E1,5.26268E-2,2.0758711E-1,-5.8783647E-2,-9.070349E-3,-1.4827214E-1,-8.385359E-2,-2.0806312E-3,-3.9840326E-2,-8.9745015E-2,-5.3684976E-2,6.389618E-4,-2.6241828E-2,-1.1024475E-4,2.8285028E-3,4.091358E-2,-3.422775E-3,5.2711513E-2,-1.0302544E-2,1.0785389E-2,5.1561993E-4],"split_indices":[7,7,4,14,11,1,1,7,7,3,14,0,7,0,1,0,1,10,10,1,7,10,10,0,10,0,0,0,0,1,10,1,11,1,0,0,0,1,2,0,1,0,0,0,0,0,0,0,0,0,0,0,0,0,0,0,0,0,0,0,0],"split_type":[0,0,0,0,0,0,0,0,0,0,0,0,0,0,0,0,0,0,0,0,0,0,0,0,0,0,0,0,0,0,0,0,0,0,0,0,0,0,0,0,0,0,0,0,0,0,0,0,0,0,0,0,0,0,0,0,0,0,0,0,0],"sum_hessian":[1.44E2,1.21E2,2.3E1,7.6E1,4.5E1,1.4E1,9E0,8E0,6.8E1,1.9E1,2.6E1,2E0,1.2E1,1E0,8E0,5E0,3E0,2E1,4.8E1,6E0,1.3E1,2E1,6E0,5E0,7E0,7E0,1E0,1E0,2E0,5E0,1.5E1,1.2E1,3.6E1,4E0,2E0,7E0,6E0,5E0,1.5E1,3E0,3E0,1E0,6E0,4E0,1E0,4E0,1.1E1,3E0,9E0,2E1,1.6E1,1E0,3E0,1E0,1E0,1E0,4E0,1.4E1,1E0,1E0,2E0],"tree_param":{"num_deleted":"0","num_feature":"15","num_nodes":"61","size_leaf_vector":"1"}},{"base_weights":[1.0953326E-1,-4.2046767E-1,2.7991407E0,-6.47188E-1,-3.181693E-2,3.484353E0,1.2699699E0,-5.3685457E-1,-7.709375E-1,-7.221404E-1,1.7999904E-1,3.893315E0,1.8059738E0,6.332817E-2,1.6526642E-1,-3.4337065E-1,-6.0691655E-1,-1.0852652E-1,-6.648221E-1,-8.9494586E-2,-4.2897813E-2,3.4955147E-1,-8.067779E-2,4.4332996E-1,1.705021E-1,5.2322388E-2,2.4867325E-1,-4.7396332E-1,-9.02532E-2,-6.314184E-1,-1.6775973E-2,-1.687542E-2,-7.404687E-1,2.7835768E-1,7.076594E-2,-1.354372E-1,2.4034182E-2,-6.409452E-2,-2.8364817E-2,-1.2930679E-2,5.2507403E-3,-7.43374E-2,-4.5836788E-2,-7.574701E-2,-1.7471744E-2,3.8941603E-2,1.6475677E-3,6.070137E-4,-1.518347E-2,-1.3317394E-2,8.21106E-3],"categories":[],"categories_nodes":[],"categories_segments":[],"categories_sizes":[],"default_left":[0,0,0,0,0,0,0,0,0,0,0,0,0,0,0,0,0,0,0,0,0,0,0,0,0,0,0,0,0,0,0,0,0,0,0,0,0,0,0,0,0,0,0,0,0,0,0,0,0,0,0],"id":36,"left_children":[1,3,5,7,9,11,13,15,17,19,21,23,25,-1,-1,27,29,-1,31,-1,-1,33,35,-1,-1,-1,-1,37,39,41,-1,-1,43,45,-1,47,49,-1,-1,-1,-1,-1,-1,-1,-1,-1,-1,-1,-1,-1,-1],"loss_changes":[2.0787366E2,1.0729441E1,2.0722336E1,6.37455E-1,6.856175E0,3.951065E0,1.1463089E0,3.8805962E-1,4.1256332E-1,1.7334843E-1,1.6193432E0,6.620865E0,3.0650978E0,0E0,0E0,4.1999733E-1,2.2763824E-1,0E0,9.25766E-1,0E0,0E0,3.6390877E-1,8.92646E-2,0E0,0E0,0E0,0E0,1.0420966E-1,4.0241454E-2,2.2110653E-1,0E0,0E0,9.850311E-2,5.752677E-1,0E0,2.4125308E-2,6.57155E-2,0E0,0E0,0E0,0E0,0E0,0E0,0E0,0E0,0E0,0E0,0E0,0E0,0E0,0E0],"parents":[2147483647,0,0,1,1,2,2,3,3,4,4,5,5,6,6,7,7,8,8,9,9,10,10,11,11,12,12,15,15,16,16,18,18,21,21,22,22,27,27,28,28,29,29,32,32,33,33,35,35,36,36],"right_children":[2,4,6,8,10,12,14,16,18,20,22,24,26,-1,-1,28,30,-1,32,-1,-1,34,36,-1,-1,-1,-1,38,40,42,-1,-1,44,46,-1,48,50,-1,-1,-1,-1,-1,-1,-1,-1,-1,-1,-1,-1,-1,-1],"split_conditions":[9.2E1,2E0,3.66E2,8E0,2E0,6E0,9.6E1,9.9E1,7.3E1,7.1E1,5E0,6.5E0,4.3E1,6.332817E-2,1.6526642E-1,7.3E1,1.31E2,-1.0852652E-1,1.07E2,-8.9494586E-2,-4.2897813E-2,9E1,2.44E2,4.4332996E-1,1.705021E-1,5.2322388E-2,2.4867325E-1,1.5E1,2.5E1,5.6E1,-1.6775973E-2,-1.687542E-2,1E1,3.62E2,7.076594E-2,6E0,6.3E1,-6.409452E-2,-2.8364817E-2,-1.2930679E-2,5.2507403E-3,-7.43374E-2,-4.5836788E-2,-7.574701E-2,-1.7471744E-2,3.8941603E-2,1.6475677E-3,6.070137E-4,-1.518347E-2,-1.3317394E-2,8.21106E-3],"split_indices":[7,5,10,14,3,11,7,10,7,7,14,12,1,0,0,7,1,0,10,0,0,7,10,0,0,0,0,1,1,8,0,0,0,10,0,1,1,0,0,0,0,0,0,0,0,0,0,0,0,0,0],"split_type":[0,0,0,0,0,0,0,0,0,0,0,0,0,0,0,0,0,0,0,0,0,0,0,0,0,0,0,0,0,0,0,0,0,0,0,0,0,0,0,0,0,0,0,0,0,0,0,0,0,0,0],"sum_hessian":[1.44E2,1.21E2,2.3E1,7.6E1,4.5E1,1.5E1,8E0,4.3E1,3.3E1,1E1,3.5E1,1.1E1,4E0,4E0,4E0,1.3E1,3E1,6E0,2.7E1,5E0,5E0,2.1E1,1.4E1,8E0,3E0,2E0,2E0,8E0,5E0,2.8E1,2E0,4E0,2.3E1,1.9E1,2E0,9E0,5E0,3E0,5E0,4E0,1E0,1.5E1,1.3E1,2.2E1,1E0,1.3E1,6E0,1E0,8E0,1E0,4E0],"tree_param":{"num_deleted":"0","num_feature":"15","num_nodes":"51","size_leaf_vector":"1"}},{"base_weights":[1.0304207E-1,-3.8248986E-1,2.5668693E0,-5.8838755E-1,-2.9519968E-2,3.1930952E0,1.168371E0,-4.8855758E-1,-7.002738E-1,-6.6196203E-1,1.6454622E-1,3.555137E0,1.6855758E0,5.8261793E-2,1.52045E-1,-5.970994E-1,-3.7322688E-1,-1.1907978E-1,-6.324037E-1,-8.2036704E-2,-3.9323006E-2,3.1965846E-1,-7.392146E-2,4.0392295E-1,1.5771447E-1,4.883423E-2,2.3209508E-1,-4.513828E-1,-7.7746615E-2,-5.081153E-1,-2.4058406E-1,-1.5525398E-2,-6.950231E-1,9.667969E-2,3.97233E-1,-1.6347186E-1,-1.2799072E-2,-1.2434316E-2,-4.669748E-2,-5.4452967E-2,-7.198572E-3,-4.548495E-3,-3.8122278E-2,-4.7710326E-2,-7.89584E-2,3.299904E-2,-6.264267E-3,4.3936107E-2,-1.1734391E-2,5.7668687E-4,-1.9847298E-2,8.396975E-3,-4.74875E-3],"categories":[],"categories_nodes":[],"categories_segments":[],"categories_sizes":[],"default_left":[0,0,0,0,0,0,0,0,0,0,0,0,0,0,0,0,0,0,0,0,0,0,0,0,0,0,0,0,0,0,0,0,0,0,0,0,0,0,0,0,0,0,0,0,0,0,0,0,0,0,0,0,0],"id":37,"left_children":[1,3,5,7,9,11,13,15,17,19,21,23,25,-1,-1,27,29,-1,31,-1,-1,33,35,-1,-1,-1,-1,37,-1,39,41,-1,43,45,47,49,51,-1,-1,-1,-1,-1,-1,-1,-1,-1,-1,-1,-1,-1,-1,-1,-1],"loss_changes":[1.7444048E2,8.849064E0,1.7287903E1,5.179367E-1,5.754762E0,2.740097E0,9.702406E-1,3.2794857E-1,3.7886238E-1,1.456604E-1,1.3552427E0,5.119934E0,2.670043E0,0E0,0E0,2.0099545E-1,3.07163E-1,0E0,8.48217E-1,0E0,0E0,3.4213996E-1,8.001073E-2,0E0,0E0,0E0,0E0,1.3324022E-2,0E0,1.3549662E-1,3.6679894E-1,0E0,2.0027542E-1,2.8087273E-1,3.984065E-1,3.668584E-2,3.7555095E-2,0E0,0E0,0E0,0E0,0E0,0E0,0E0,0E0,0E0,0E0,0E0,0E0,0E0,0E0,0E0,0E0],"parents":[2147483647,0,0,1,1,2,2,3,3,4,4,5,5,6,6,7,7,8,8,9,9,10,10,11,11,12,12,15,15,16,16,18,18,21,21,22,22,27,27,29,29,30,30,32,32,33,33,34,34,35,35,36,36],"right_children":[2,4,6,8,10,12,14,16,18,20,22,24,26,-1,-1,28,30,-1,32,-1,-1,34,36,-1,-1,-1,-1,38,-1,40,42,-1,44,46,48,50,52,-1,-1,-1,-1,-1,-1,-1,-1,-1,-1,-1,-1,-1,-1,-1,-1],"split_conditions":[9.2E1,2E0,3.66E2,8E0,2E0,6E0,9.6E1,4E0,9.9E1,7.1E1,5E0,6.5E0,4.3E1,5.8261793E-2,1.52045E-1,7E0,7.3E1,-1.1907978E-1,1.07E2,-8.2036704E-2,-3.9323006E-2,9.8E1,8.5E1,4.0392295E-1,1.5771447E-1,4.883423E-2,2.3209508E-1,8.3E1,-7.7746615E-2,1.14E2,2.8E1,-1.5525398E-2,7.8E1,2E1,3E0,6E0,8E0,-1.2434316E-2,-4.669748E-2,-5.4452967E-2,-7.198572E-3,-4.548495E-3,-3.8122278E-2,-4.7710326E-2,-7.89584E-2,3.299904E-2,-6.264267E-3,4.3936107E-2,-1.1734391E-2,5.7668687E-4,-1.9847298E-2,8.396975E-3,-4.74875E-3],"split_indices":[7,5,10,14,3,11,7,11,10,7,14,12,1,0,0,13,7,0,10,0,0,10,7,0,0,0,0,7,0,1,1,0,1,1,2,1,14,0,0,0,0,0,0,0,0,0,0,0,0,0,0,0,0],"split_type":[0,0,0,0,0,0,0,0,0,0,0,0,0,0,0,0,0,0,0,0,0,0,0,0,0,0,0,0,0,0,0,0,0,0,0,0,0,0,0,0,0,0,0,0,0,0,0,0,0,0,0,0,0],"sum_hessian":[1.44E2,1.21E2,2.3E1,7.6E1,4.5E1,1.5E1,8E0,4.3E1,3.3E1,1E1,3.5E1,1.1E1,4E0,4E0,4E0,2E1,2.3E1,2E0,3.1E1,5E0,5E0,2.1E1,1.4E1,8E0,3E0,2E0,2E0,1.3E1,7E0,1E1,1.3E1,4E0,2.7E1,6E0,1.5E1,5E0,9E0,1E0,1.2E1,9E0,1E0,6E0,7E0,1E1,1.7E1,2E0,4E0,1.4E1,1E0,1E0,4E0,2E0,7E0],"tree_param":{"num_deleted":"0","num_feature":"15","num_nodes":"53","size_leaf_vector":"1"}},{"base_weights":[9.5995724E-2,-3.4899932E-1,2.354054E0,-5.360744E-1,-2.8264964E-2,2.9264488E0,1.0749016E0,-6.737249E-2,-4.6496907E-1,-6.067985E-1,1.4929432E-1,1.9293938E0,3.487559E0,5.3600997E-2,1.398813E-1,-6.6512156E-1,-3.919464E-1,-8.960031E-2,-4.4297498E-2,2.9037043E-1,-6.757024E-2,2.2001407E0,7.447688E-2,1.402654E-1,3.882867E-1,-1.11141145E-1,-4.8294056E-2,-2.1708833E-1,-5.0216633E-1,2.3530306E-1,7.233925E-2,-1.5033595E-1,-1.1153793E-2,2.8900784E-1,1.1326523E0,-2.5224715E-2,4.278819E-3,-6.8294875E-2,-4.091325E-2,1.6451646E-2,6.051839E-2,5.478859E-4,-1.825947E-2,7.837232E-3,-4.3331864E-3,4.5578513E-2,1.581627E-1],"categories":[],"categories_nodes":[],"categories_segments":[],"categories_sizes":[],"default_left":[0,0,0,0,0,0,0,0,0,0,0,0,0,0,0,0,0,0,0,0,0,0,0,0,0,0,0,0,0,0,0,0,0,0,0,0,0,0,0,0,0,0,0,0,0,0,0],"id":38,"left_children":[1,3,5,7,9,11,13,-1,15,17,19,21,23,-1,-1,25,27,-1,-1,29,31,33,-1,-1,-1,-1,-1,35,37,39,-1,41,43,-1,45,-1,-1,-1,-1,-1,-1,-1,-1,-1,-1,-1,-1],"loss_changes":[1.4652115E2,7.3050175E0,1.4426697E1,4.4038963E-1,4.815896E0,2.2224426E0,8.212004E-1,0E0,5.2855396E-1,1.2425709E-1,1.1210191E0,9.272728E-1,1.9712982E0,0E0,0E0,5.20226E-1,7.004447E-1,0E0,0E0,3.543818E-1,6.836338E-2,1.145546E0,0E0,0E0,0E0,0E0,0E0,1.752584E-1,1.4105558E-1,4.502722E-1,0E0,3.1158745E-2,3.2203794E-2,0E0,4.9470282E-1,0E0,0E0,0E0,0E0,0E0,0E0,0E0,0E0,0E0,0E0,0E0,0E0],"parents":[2147483647,0,0,1,1,2,2,3,3,4,4,5,5,6,6,8,8,9,9,10,10,11,11,12,12,15,15,16,16,19,19,20,20,21,21,27,27,28,28,29,29,31,31,32,32,34,34],"right_children":[2,4,6,8,10,12,14,-1,16,18,20,22,24,-1,-1,26,28,-1,-1,30,32,34,-1,-1,-1,-1,-1,36,38,40,-1,42,44,-1,46,-1,-1,-1,-1,-1,-1,-1,-1,-1,-1,-1,-1],"split_conditions":[9.2E1,2E0,3.66E2,4E0,2E0,5.4E1,9.6E1,-6.737249E-2,4.7E1,6.8E1,5E0,4.6E1,9.8E1,5.3600997E-2,1.398813E-1,6E0,7E0,-8.960031E-2,-4.4297498E-2,9.1E1,8.5E1,4E0,7.447688E-2,1.402654E-1,3.882867E-1,-1.11141145E-1,-4.8294056E-2,7.9E1,1.19E2,1.36E2,7.233925E-2,6E0,8E0,2.8900784E-1,4.3E1,-2.5224715E-2,4.278819E-3,-6.8294875E-2,-4.091325E-2,1.6451646E-2,6.051839E-2,5.478859E-4,-1.825947E-2,7.837232E-3,-4.3331864E-3,4.5578513E-2,1.581627E-1],"split_indices":[7,5,10,0,3,1,7,0,8,7,14,1,7,0,0,0,0,0,0,7,7,11,0,0,0,0,0,7,10,1,0,1,14,0,1,0,0,0,0,0,0,0,0,0,0,0,0],"split_type":[0,0,0,0,0,0,0,0,0,0,0,0,0,0,0,0,0,0,0,0,0,0,0,0,0,0,0,0,0,0,0,0,0,0,0,0,0,0,0,0,0,0,0,0,0,0,0],"sum_hessian":[1.44E2,1.21E2,2.3E1,7.6E1,4.5E1,1.5E1,8E0,2.3E1,5.3E1,1E1,3.5E1,7E0,8E0,4E0,4E0,1.2E1,4.1E1,2E0,8E0,2.1E1,1.4E1,5E0,2E0,2E0,6E0,2E0,1E1,1.7E1,2.4E1,2E1,1E0,5E0,9E0,2E0,3E0,1.5E1,2E0,6E0,1.8E1,1.8E1,2E0,1E0,4E0,2E0,7E0,2E0,1E0],"tree_param":{"num_deleted":"0","num_feature":"15","num_nodes":"47","size_leaf_vector":"1"}},{"base_weights":[9.283371E-2,-3.170156E-1,2.1723664E0,-4.871028E-1,-2.5412751E-2,2.702289E0,9.889073E-1,-4.0332463E-1,-5.8119506E-1,-5.5829126E-1,1.3811715E-1,3.0006855E0,1.4456803E0,4.9312823E-2,1.286905E-1,-4.9673805E-1,-3.0478272E-1,-1.0373173E-1,-5.202713E-1,-6.999878E-2,-3.2354627E-2,2.6811913E-1,-6.1760202E-2,3.408504E-1,1.332922E-1,4.253998E-2,1.9840674E-1,-3.705215E-1,-6.555248E-1,-3.4447938E-1,-2.017957E-2,-1.2265358E-2,-5.7269335E-1,2.0469208E-1,6.0159303E-2,-1.0711841E-1,2.4130186E-2,-8.397842E-3,-3.8610335E-2,-6.9568545E-2,-1.8720007E-2,-4.0179927E-2,-1.7243972E-2,8.846235E-3,-8.5881E-3,-3.8624365E-2,-6.548185E-2,3.1391498E-2,-4.299545E-3,5.2051543E-4,-1.2017717E-2,-1.21973995E-2,7.7745817E-3],"categories":[],"categories_nodes":[],"categories_segments":[],"categories_sizes":[],"default_left":[0,0,0,0,0,0,0,0,0,0,0,0,0,0,0,0,0,0,0,0,0,0,0,0,0,0,0,0,0,0,0,0,0,0,0,0,0,0,0,0,0,0,0,0,0,0,0,0,0,0,0,0,0],"id":39,"left_children":[1,3,5,7,9,11,13,15,17,19,21,23,25,-1,-1,27,29,-1,31,-1,-1,33,35,-1,-1,-1,-1,37,39,41,43,-1,45,47,-1,49,51,-1,-1,-1,-1,-1,-1,-1,-1,-1,-1,-1,-1,-1,-1,-1,-1],"loss_changes":[1.24271454E2,6.0385666E0,1.2379082E1,3.7257195E-1,4.085623E0,1.6614532E0,6.9506073E-1,2.5362873E-1,4.051304E-1,1.394093E-1,9.5199925E-1,3.6184692E0,1.9025078E0,0E0,0E0,1.7798615E-1,2.6419568E-1,0E0,5.967617E-1,0E0,0E0,3.4218645E-1,6.1022304E-2,0E0,0E0,0E0,0E0,3.0084014E-2,2.0233393E-2,1.3780093E-1,3.614895E-2,0E0,1.7582321E-1,5.5455995E-1,0E0,1.5293576E-2,5.6483775E-2,0E0,0E0,0E0,0E0,0E0,0E0,0E0,0E0,0E0,0E0,0E0,0E0,0E0,0E0,0E0,0E0],"parents":[2147483647,0,0,1,1,2,2,3,3,4,4,5,5,6,6,7,7,8,8,9,9,10,10,11,11,12,12,15,15,16,16,18,18,21,21,22,22,27,27,28,28,29,29,30,30,32,32,33,33,35,35,36,36],"right_children":[2,4,6,8,10,12,14,16,18,20,22,24,26,-1,-1,28,30,-1,32,-1,-1,34,36,-1,-1,-1,-1,38,40,42,44,-1,46,48,-1,50,52,-1,-1,-1,-1,-1,-1,-1,-1,-1,-1,-1,-1,-1,-1,-1,-1],"split_conditions":[9.2E1,2E0,3.66E2,8E0,2E0,6E0,9.6E1,4E0,9.9E1,7.1E1,5E0,6.5E0,4.3E1,4.9312823E-2,1.286905E-1,7E0,7.9E1,-1.0373173E-1,1.07E2,-6.999878E-2,-3.2354627E-2,9E1,2.44E2,3.408504E-1,1.332922E-1,4.253998E-2,1.9840674E-1,8.3E1,8.9E1,9E0,2.8E1,-1.2265358E-2,7.8E1,3.62E2,6.0159303E-2,6E0,6.3E1,-8.397842E-3,-3.8610335E-2,-6.9568545E-2,-1.8720007E-2,-4.0179927E-2,-1.7243972E-2,8.846235E-3,-8.5881E-3,-3.8624365E-2,-6.548185E-2,3.1391498E-2,-4.299545E-3,5.2051543E-4,-1.2017717E-2,-1.21973995E-2,7.7745817E-3],"split_indices":[7,5,10,14,3,11,7,11,10,7,14,12,1,0,0,13,7,0,10,0,0,7,10,0,0,0,0,7,1,11,1,0,1,10,0,1,1,0,0,0,0,0,0,0,0,0,0,0,0,0,0,0,0],"split_type":[0,0,0,0,0,0,0,0,0,0,0,0,0,0,0,0,0,0,0,0,0,0,0,0,0,0,0,0,0,0,0,0,0,0,0,0,0,0,0,0,0,0,0,0,0,0,0,0,0,0,0,0,0],"sum_hessian":[1.44E2,1.21E2,2.3E1,7.6E1,4.5E1,1.5E1,8E0,4.3E1,3.3E1,1E1,3.5E1,1.1E1,4E0,4E0,4E0,2E1,2.3E1,2E0,3.1E1,5E0,5E0,2.1E1,1.4E1,8E0,3E0,2E0,2E0,1.3E1,7E0,2E1,3E0,4E0,2.7E1,1.9E1,2E0,9E0,5E0,1E0,1.2E1,6E0,1E0,1.4E1,6E0,1E0,2E0,1E1,1.7E1,1.3E1,6E0,1E0,8E0,1E0,4E0],"tree_param":{"num_deleted":"0","num_feature":"15","num_nodes":"53","size_leaf_vector":"1"}},{"base_weights":[8.665033E-2,-2.8894988E-1,1.9923409E0,-4.4375044E-1,-2.3545658E-2,2.4767528E0,9.09793E-1,-3.6736616E-1,-5.295492E-1,-5.11767E-1,1.2628715E-1,2.0106044E-1,3.826528E-1,1.06163085E-1,2.522405E-2,-2.2603096E-1,-4.1934446E-1,-9.681626E-2,-4.7188076E-1,-7.896039E-2,-3.6229175E-2,2.4527341E-1,-5.6645203E-2,-5.890126E-2,-1.5280063E-1,-4.7163036E-1,-2.3913103E-1,-1.1284141E-1,-5.1914203E-1,1.9436792E-1,6.5714456E-2,-1.2115642E-1,-1.7589993E-4,-2.1081658E-2,3.0439377E-3,-5.5955734E-2,-3.248412E-2,-2.6295608E-2,-2.426529E-3,-1.3805802E-2,-5.0011E-3,-3.5113063E-2,-5.929745E-2,1.2706878E-2,5.5580646E-2,-1.5916863E-2,-1.7417272E-3,-5.970256E-3,8.915806E-3],"categories":[],"categories_nodes":[],"categories_segments":[],"categories_sizes":[],"default_left":[0,0,0,0,0,0,0,0,0,0,0,0,0,0,0,0,0,0,0,0,0,0,0,0,0,0,0,0,0,0,0,0,0,0,0,0,0,0,0,0,0,0,0,0,0,0,0,0,0],"id":40,"left_children":[1,3,5,7,9,11,13,15,17,19,21,-1,-1,-1,-1,23,25,-1,27,-1,-1,29,31,-1,33,35,37,39,41,43,-1,45,47,-1,-1,-1,-1,-1,-1,-1,-1,-1,-1,-1,-1,-1,-1,-1,-1],"loss_changes":[1.04363464E2,5.0018873E0,1.0332237E1,3.1009483E-1,3.4296021E0,2.373497E0,6.3078594E-1,2.2845459E-1,4.0314388E-1,1.7076015E-1,7.974853E-1,0E0,0E0,0E0,0E0,2.821362E-1,1.7931986E-1,0E0,4.8441648E-1,0E0,0E0,3.3353543E-1,5.4622237E-2,0E0,1.4461803E-1,1.1508751E-1,3.9691985E-2,1.0174289E-3,1.391201E-1,4.4018894E-1,0E0,2.483119E-2,5.318273E-2,0E0,0E0,0E0,0E0,0E0,0E0,0E0,0E0,0E0,0E0,0E0,0E0,0E0,0E0,0E0,0E0],"parents":[2147483647,0,0,1,1,2,2,3,3,4,4,5,5,6,6,7,7,8,8,9,9,10,10,15,15,16,16,18,18,21,21,22,22,24,24,25,25,26,26,27,27,28,28,29,29,31,31,32,32],"right_children":[2,4,6,8,10,12,14,16,18,20,22,-1,-1,-1,-1,24,26,-1,28,-1,-1,30,32,-1,34,36,38,40,42,44,-1,46,48,-1,-1,-1,-1,-1,-1,-1,-1,-1,-1,-1,-1,-1,-1,-1,-1],"split_conditions":[9.2E1,2E0,3.66E2,8E0,2E0,1.01E2,1E1,9.9E1,9.9E1,6.8E1,5E0,2.0106044E-1,3.826528E-1,1.06163085E-1,2.522405E-2,5E0,8.9E1,-9.681626E-2,1.07E2,-7.896039E-2,-3.6229175E-2,9.1E1,4E0,-5.890126E-2,7.4E1,5.6E1,3E0,7.1E1,7.8E1,1.36E2,6.5714456E-2,1.02E2,8.7E1,-2.1081658E-2,3.0439377E-3,-5.5955734E-2,-3.248412E-2,-2.6295608E-2,-2.426529E-3,-1.3805802E-2,-5.0011E-3,-3.5113063E-2,-5.929745E-2,1.2706878E-2,5.5580646E-2,-1.5916863E-2,-1.7417272E-3,-5.970256E-3,8.915806E-3],"split_indices":[7,5,10,14,3,7,11,10,10,7,14,0,0,0,0,1,1,0,10,0,0,7,11,0,7,8,2,1,1,1,0,1,7,0,0,0,0,0,0,0,0,0,0,0,0,0,0,0,0],"split_type":[0,0,0,0,0,0,0,0,0,0,0,0,0,0,0,0,0,0,0,0,0,0,0,0,0,0,0,0,0,0,0,0,0,0,0,0,0,0,0,0,0,0,0,0,0,0,0,0,0],"sum_hessian":[1.44E2,1.21E2,2.3E1,7.6E1,4.5E1,1.5E1,8E0,4.3E1,3.3E1,1E1,3.5E1,1.3E1,2E0,6E0,2E0,1.3E1,3E1,2E0,3.1E1,2E0,8E0,2.1E1,1.4E1,1E0,1.2E1,2.2E1,8E0,4E0,2.7E1,2E1,1E0,6E0,8E0,9E0,3E0,1.2E1,1E1,7E0,1E0,2E0,2E0,1E1,1.7E1,1.8E1,2E0,4E0,2E0,5E0,3E0],"tree_param":{"num_deleted":"0","num_feature":"15","num_nodes":"49","size_leaf_vector":"1"}},{"base_weights":[8.015801E-2,-2.6333383E-1,1.8229016E0,-4.0462387E-1,-2.1101931E-2,2.2655578E0,8.334126E-1,-5.0987864E-1,-3.5035095E-1,-4.7106215E-1,1.16972074E-1,1.8239044E-1,3.5714215E-1,4.0112227E-2,1.0990204E0,-4.5645526E-1,-8.6930804E-2,-5.201007E-1,-2.8946766E-1,-7.369636E-2,-3.3008808E-1,2.2683716E-1,-5.196152E-2,1.2086449E-1,3.3026125E-2,-5.143385E-2,-2.067297E-2,-9.0361856E-2,-3.6822304E-1,-1.5374814E-1,-3.75607E-1,-3.4789655E-2,-9.38102E-3,1.7818305E-1,6.2428664E-2,-1.2108549E-1,-5.290985E-3,-4.1712362E-2,-1.7836614E-2,-5.5049155E-3,-2.2720242E-2,-5.2587587E-2,-3.00476E-2,1.1503079E-2,5.1875304E-2,1.2903214E-3,-1.5046387E-2,-1.0791684E-2,1.8102647E-3],"categories":[],"categories_nodes":[],"categories_segments":[],"categories_sizes":[],"default_left":[0,0,0,0,0,0,0,0,0,0,0,0,0,0,0,0,0,0,0,0,0,0,0,0,0,0,0,0,0,0,0,0,0,0,0,0,0,0,0,0,0,0,0,0,0,0,0,0,0],"id":41,"left_children":[1,3,5,7,9,11,13,15,17,19,21,-1,-1,-1,23,25,-1,27,29,-1,31,33,35,-1,-1,-1,-1,-1,37,39,41,-1,-1,43,-1,45,47,-1,-1,-1,-1,-1,-1,-1,-1,-1,-1,-1,-1],"loss_changes":[8.727966E1,4.1669044E0,8.6239395E0,2.6122475E-1,2.91298E0,2.71389E0,5.92536E-1,6.404638E-2,4.0753365E-1,1.6907454E-1,6.799433E-1,0E0,0E0,0E0,2.2205353E-2,2.2613382E-1,0E0,4.2448807E-1,4.3326426E-1,0E0,5.233407E-3,3.1418872E-1,4.7750127E-2,0E0,0E0,0E0,0E0,0E0,2.7724504E-2,1.17990166E-1,1.2423277E-1,0E0,0E0,3.9199042E-1,0E0,2.5559694E-2,2.5961492E-2,0E0,0E0,0E0,0E0,0E0,0E0,0E0,0E0,0E0,0E0,0E0,0E0],"parents":[2147483647,0,0,1,1,2,2,3,3,4,4,5,5,6,6,7,7,8,8,9,9,10,10,14,14,15,15,17,17,18,18,20,20,21,21,22,22,28,28,29,29,30,30,33,33,35,35,36,36],"right_children":[2,4,6,8,10,12,14,16,18,20,22,-1,-1,-1,24,26,-1,28,30,-1,32,34,36,-1,-1,-1,-1,-1,38,40,42,-1,-1,44,-1,46,48,-1,-1,-1,-1,-1,-1,-1,-1,-1,-1,-1,-1],"split_conditions":[9.2E1,2E0,3.66E2,4E0,2E0,1.01E2,9.6E1,1.53E2,4.7E1,6.8E1,5E0,1.8239044E-1,3.5714215E-1,4.0112227E-2,9.8E1,8E1,-8.6930804E-2,6E0,7E0,-7.369636E-2,7.4E1,9.1E1,8.5E1,1.2086449E-1,3.3026125E-2,-5.143385E-2,-2.067297E-2,-9.0361856E-2,8.1E1,2.8E1,1.19E2,-3.4789655E-2,-9.38102E-3,1.36E2,6.2428664E-2,6E0,6.3E1,-4.1712362E-2,-1.7836614E-2,-5.5049155E-3,-2.2720242E-2,-5.2587587E-2,-3.00476E-2,1.1503079E-2,5.1875304E-2,1.2903214E-3,-1.5046387E-2,-1.0791684E-2,1.8102647E-3],"split_indices":[7,5,10,0,3,7,7,1,8,7,14,0,0,0,7,7,0,0,0,0,7,7,7,0,0,0,0,0,1,1,10,0,0,1,0,1,1,0,0,0,0,0,0,0,0,0,0,0,0],"split_type":[0,0,0,0,0,0,0,0,0,0,0,0,0,0,0,0,0,0,0,0,0,0,0,0,0,0,0,0,0,0,0,0,0,0,0,0,0,0,0,0,0,0,0,0,0,0,0,0,0],"sum_hessian":[1.44E2,1.21E2,2.3E1,7.6E1,4.5E1,1.5E1,8E0,2.3E1,5.3E1,1E1,3.5E1,1.3E1,2E0,4E0,4E0,2.2E1,1E0,1.2E1,4.1E1,2E0,8E0,2.1E1,1.4E1,3E0,1E0,1.7E1,5E0,2E0,1E1,1.7E1,2.4E1,7E0,1E0,2E1,1E0,5E0,9E0,7E0,3E0,8E0,9E0,6E0,1.8E1,1.8E1,2E0,1E0,4E0,1E0,8E0],"tree_param":{"num_deleted":"0","num_feature":"15","num_nodes":"49","size_leaf_vector":"1"}},{"base_weights":[7.420406E-2,-2.4056254E-1,1.6711758E0,-3.6961362E-1,-1.9312678E-2,1.3685569E0,3.3333233E-1,-3.0547467E-1,-4.4174597E-1,-4.3467116E-1,1.0813888E-1,1.6545437E-1,7.7162635E-1,-3.803632E-1,-2.2721906E-1,-8.433774E-2,-3.9028844E-1,-6.878327E-2,-3.019872E-1,1.98776E-1,-6.750958E-2,3.6903154E-2,1.0198959E-1,-4.4175828E-1,-1.9446476E-1,-3.3436868E-1,-1.2680016E-1,-8.7142564E-2,-4.3048277E-1,-3.1745568E-2,-8.911967E-3,1.5584688E-1,5.930729E-2,-1.11269E-1,-2.6251316E-2,-4.6662368E-2,-1.8675549E-2,-5.752778E-3,-2.0769961E-2,-3.8644742E-2,-6.667614E-3,7.504736E-4,-2.2846693E-2,-1.1370755E-2,-3.1530063E-3,-3.8525306E-2,-8.258426E-2,1.0152245E-2,4.84169E-2,1.225853E-3,-1.3842622E-2,-1.0252095E-2,-7.098062E-5],"categories":[],"categories_nodes":[],"categories_segments":[],"categories_sizes":[],"default_left":[0,0,0,0,0,0,0,0,0,0,0,0,0,0,0,0,0,0,0,0,0,0,0,0,0,0,0,0,0,0,0,0,0,0,0,0,0,0,0,0,0,0,0,0,0,0,0,0,0,0,0,0,0],"id":42,"left_children":[1,3,5,7,9,11,-1,13,15,17,19,-1,21,23,25,-1,27,-1,29,31,33,-1,-1,35,37,39,41,43,45,-1,-1,47,-1,49,51,-1,-1,-1,-1,-1,-1,-1,-1,-1,-1,-1,-1,-1,-1,-1,-1,-1,-1],"loss_changes":[7.328966E1,3.4762702E0,7.5100937E0,2.2129822E-1,2.4821568E0,2.479023E0,0E0,1.7143393E-1,3.7351608E-1,1.6177845E-1,5.8654904E-1,0E0,5.231948E-1,1.5377164E-1,2.1583831E-1,0E0,3.523984E-1,0E0,1.3431311E-3,3.1381506E-1,2.0549726E-2,0E0,0E0,7.966757E-3,7.379055E-4,1.2758529E-1,1.928754E-1,3.801521E-3,1.8253756E-1,0E0,0E0,3.6107206E-1,0E0,2.1824881E-2,1.5511559E-2,0E0,0E0,0E0,0E0,0E0,0E0,0E0,0E0,0E0,0E0,0E0,0E0,0E0,0E0,0E0,0E0,0E0,0E0],"parents":[2147483647,0,0,1,1,2,2,3,3,4,4,5,5,7,7,8,8,9,9,10,10,12,12,13,13,14,14,16,16,18,18,19,19,20,20,23,23,24,24,25,25,26,26,27,27,28,28,31,31,33,33,34,34],"right_children":[2,4,6,8,10,12,-1,14,16,18,20,-1,22,24,26,-1,28,-1,30,32,34,-1,-1,36,38,40,42,44,46,-1,-1,48,-1,50,52,-1,-1,-1,-1,-1,-1,-1,-1,-1,-1,-1,-1,-1,-1,-1,-1,-1,-1],"split_conditions":[9.2E1,2E0,1.01E2,8E0,2E0,3.66E2,3.3333233E-1,4E0,9.9E1,6.8E1,1.3E1,1.6545437E-1,9.6E1,8.9E1,7.3E1,-8.433774E-2,1.07E2,-6.878327E-2,7.4E1,9.1E1,8.5E1,3.6903154E-2,1.0198959E-1,8.9E1,1E0,3.7E1,2.8E1,7.1E1,8.3E1,-3.1745568E-2,-8.911967E-3,1.37E2,5.930729E-2,6E0,6.3E1,-4.6662368E-2,-1.8675549E-2,-5.752778E-3,-2.0769961E-2,-3.8644742E-2,-6.667614E-3,7.504736E-4,-2.2846693E-2,-1.1370755E-2,-3.1530063E-3,-3.8525306E-2,-8.258426E-2,1.0152245E-2,4.84169E-2,1.225853E-3,-1.3842622E-2,-1.0252095E-2,-7.098062E-5],"split_indices":[7,5,7,14,3,10,0,11,10,7,0,0,7,7,7,0,10,0,7,7,7,0,0,1,1,1,1,1,7,0,0,1,0,1,1,0,0,0,0,0,0,0,0,0,0,0,0,0,0,0,0,0,0],"split_type":[0,0,0,0,0,0,0,0,0,0,0,0,0,0,0,0,0,0,0,0,0,0,0,0,0,0,0,0,0,0,0,0,0,0,0,0,0,0,0,0,0,0,0,0,0,0,0,0,0,0,0,0,0],"sum_hessian":[1.44E2,1.21E2,2.3E1,7.6E1,4.5E1,2.1E1,2E0,4.3E1,3.3E1,1E1,3.5E1,1.3E1,8E0,2E1,2.3E1,2E0,3.1E1,2E0,8E0,2.3E1,1.2E1,4E0,4E0,1.4E1,6E0,1E1,1.3E1,4E0,2.7E1,7E0,1E0,2.2E1,1E0,5E0,7E0,1.2E1,2E0,1E0,5E0,8E0,2E0,6E0,7E0,2E0,2E0,2.6E1,1E0,2E1,2E0,1E0,4E0,1E0,6E0],"tree_param":{"num_deleted":"0","num_feature":"15","num_nodes":"53","size_leaf_vector":"1"}},{"base_weights":[6.846653E-2,-2.1973345E-1,1.5306302E0,-3.3757737E-1,-1.769611E-2,1.2455369E0,3.1111044E-1,-4.5455992E-1,-2.9944164E-1,-4.0115312E-1,9.996287E-2,1.5009106E0,7.098961E-1,-7.117336E-2,-2.8809306E-1,-3.7206239E-1,-1.6328292E-1,-6.419771E-2,-2.7630588E-2,3.3770856E-2,3.2741356E-1,2.3997498E-1,1.2471731E0,2.6943684E-2,8.852196E-1,-4.6629395E-2,-2.058235E-1,-3.4056136E-1,-7.8455046E-2,6.8620956E-3,-2.2373775E-1,-3.991594E-2,1.7776737E-1,4.1023636E-1,5.2630108E-2,6.027031E-2,1.5972169E-1,3.8176727E-2,1.0415039E-1,-9.192066E-3,-2.6643861E-2,-1.4062579E-2,-3.6659326E-2,-6.115494E-3,1.1793646E-2,-2.5570387E-2,-5.5921855E-3,1.9957924E-2,-1.1226344E-2,6.7976E-2,4.646153E-3,4.646637E-2,6.9049834E-3,8.086777E-3,-1.9226075E-4,-8.420563E-3,1.364975E-2],"categories":[],"categories_nodes":[],"categories_segments":[],"categories_sizes":[],"default_left":[0,0,0,0,0,0,0,0,0,0,0,0,0,0,0,0,0,0,0,0,0,0,0,0,0,0,0,0,0,0,0,0,0,0,0,0,0,0,0,0,0,0,0,0,0,0,0,0,0,0,0,0,0,0,0,0,0],"id":43,"left_children":[1,3,5,7,9,11,-1,13,15,17,19,21,23,-1,25,27,29,-1,-1,31,33,-1,35,-1,37,-1,39,41,-1,43,45,47,49,51,53,55,-1,-1,-1,-1,-1,-1,-1,-1,-1,-1,-1,-1,-1,-1,-1,-1,-1,-1,-1,-1,-1],"loss_changes":[6.1438683E1,2.8987093E0,6.9389877E0,2.0739937E-1,2.11549E0,1.9438591E0,0E0,5.227399E-1,5.4241323E-1,1.533463E-1,5.30938E-1,2.0006561E-1,4.564948E-1,0E0,7.995176E-2,2.3957014E-1,2.3811531E-1,0E0,0E0,3.1480438E-1,1.6047597E-1,0E0,5.304819E0,0E0,7.447815E-2,0E0,4.4551104E-2,1.462264E-1,0E0,6.0097035E-2,7.6895714E-2,3.6894298E-1,6.2756294E-1,7.933426E-2,4.7768E-3,5.5545837E-2,0E0,0E0,0E0,0E0,0E0,0E0,0E0,0E0,0E0,0E0,0E0,0E0,0E0,0E0,0E0,0E0,0E0,0E0,0E0,0E0,0E0],"parents":[2147483647,0,0,1,1,2,2,3,3,4,4,5,5,7,7,8,8,9,9,10,10,11,11,12,12,14,14,15,15,16,16,19,19,20,20,22,22,24,24,26,26,27,27,29,29,30,30,31,31,32,32,33,33,34,34,35,35],"right_children":[2,4,6,8,10,12,-1,14,16,18,20,22,24,-1,26,28,30,-1,-1,32,34,-1,36,-1,38,-1,40,42,-1,44,46,48,50,52,54,56,-1,-1,-1,-1,-1,-1,-1,-1,-1,-1,-1,-1,-1,-1,-1,-1,-1,-1,-1,-1,-1],"split_conditions":[9.2E1,2E0,1.01E2,7.3E1,2E0,3.66E2,3.1111044E-1,6E0,8E0,6.8E1,8.9E1,3.3E1,7.5E0,-7.117336E-2,1E1,1.54E2,2.8E1,-6.419771E-2,-2.7630588E-2,1.28E2,1.12E2,2.3997498E-1,3.65E2,2.6943684E-2,9.6E1,-4.6629395E-2,9.3E1,1.07E2,-7.8455046E-2,2.5E1,7.9E1,